{"sizes":[4,32,32,32,32,1],"layers":[{"position":{},"roll":{},"rosette":{},"removeEnemyPiece":{}},{"0":{"bias":1.4866012334823608,"weights":{"position":-0.42881426215171814,"roll":-0.9213722348213196,"rosette":2.1031007766723633,"removeEnemyPiece":0.5420519709587097}},"1":{"bias":-0.3407280147075653,"weights":{"position":-0.22930335998535156,"roll":-0.5254582762718201,"rosette":0.3344871401786804,"removeEnemyPiece":0.0033039050176739693}},"2":{"bias":-0.7105109095573425,"weights":{"position":-0.4949096143245697,"roll":0.2570556104183197,"rosette":0.61884605884552,"removeEnemyPiece":0.06852658838033676}},"3":{"bias":-0.7064817547798157,"weights":{"position":-0.5479413270950317,"roll":0.31738877296447754,"rosette":0.4877375364303589,"removeEnemyPiece":-0.10747938603162766}},"4":{"bias":-0.5454761981964111,"weights":{"position":0.0942765474319458,"roll":-0.5901226997375488,"rosette":0.21298226714134216,"removeEnemyPiece":-0.08120080083608627}},"5":{"bias":-0.7851148247718811,"weights":{"position":0.0296440739184618,"roll":2.8457913398742676,"rosette":0.95023512840271,"removeEnemyPiece":0.033051252365112305}},"6":{"bias":-0.02560621127486229,"weights":{"position":-0.8646678924560547,"roll":-1.4143985509872437,"rosette":-0.6423677802085876,"removeEnemyPiece":-0.17110908031463623}},"7":{"bias":0.26236405968666077,"weights":{"position":1.304005742073059,"roll":-2.724998950958252,"rosette":-1.7329670190811157,"removeEnemyPiece":2.2613418102264404}},"8":{"bias":-4.1907758712768555,"weights":{"position":3.574951410293579,"roll":2.7506556510925293,"rosette":1.4217922687530518,"removeEnemyPiece":0.5787703990936279}},"9":{"bias":-0.1531999111175537,"weights":{"position":-0.05726872757077217,"roll":-0.9033202528953552,"rosette":-0.9851969480514526,"removeEnemyPiece":-0.359035462141037}},"10":{"bias":0.9319911003112793,"weights":{"position":-1.3768243789672852,"roll":-1.4467774629592896,"rosette":-1.1165918111801147,"removeEnemyPiece":-0.5495485067367554}},"11":{"bias":2.4589593410491943,"weights":{"position":-2.5150458812713623,"roll":-1.7334901094436646,"rosette":-1.808286428451538,"removeEnemyPiece":-0.9559350609779358}},"12":{"bias":-0.9259028434753418,"weights":{"position":-0.022687027230858803,"roll":3.117816686630249,"rosette":1.476772665977478,"removeEnemyPiece":0.4330676794052124}},"13":{"bias":0.854508101940155,"weights":{"position":-0.4351337254047394,"roll":2.5600740909576416,"rosette":-1.4323490858078003,"removeEnemyPiece":-1.1719516515731812}},"14":{"bias":-0.6981907486915588,"weights":{"position":-0.029447484761476517,"roll":2.616602659225464,"rosette":1.5802762508392334,"removeEnemyPiece":0.6255397200584412}},"15":{"bias":-0.17319200932979584,"weights":{"position":-0.08844906836748123,"roll":-0.8687516450881958,"rosette":-0.7266501784324646,"removeEnemyPiece":-0.221415176987648}},"16":{"bias":0.06703507900238037,"weights":{"position":0.7611183524131775,"roll":-0.4134920835494995,"rosette":0.7596652507781982,"removeEnemyPiece":0.13905002176761627}},"17":{"bias":-0.3850635886192322,"weights":{"position":0.0183915663510561,"roll":-0.9472439289093018,"rosette":-1.5968347787857056,"removeEnemyPiece":-0.440941721200943}},"18":{"bias":-0.5907230377197266,"weights":{"position":0.03295556828379631,"roll":2.2127528190612793,"rosette":1.0394010543823242,"removeEnemyPiece":0.3537292778491974}},"19":{"bias":1.1407175064086914,"weights":{"position":-0.41683563590049744,"roll":2.456730365753174,"rosette":-1.5959397554397583,"removeEnemyPiece":-1.2219765186309814}},"20":{"bias":-1.0433417558670044,"weights":{"position":-0.3581922650337219,"roll":0.2004430741071701,"rosette":0.9802225828170776,"removeEnemyPiece":0.14283622801303864}},"21":{"bias":1.4389947652816772,"weights":{"position":-0.4576842486858368,"roll":2.649444103240967,"rosette":-1.8733106851577759,"removeEnemyPiece":-1.8398370742797852}},"22":{"bias":-0.19557832181453705,"weights":{"position":-0.21082623302936554,"roll":-0.6980586647987366,"rosette":0.08974878489971161,"removeEnemyPiece":0.09897192567586899}},"23":{"bias":1.0886790752410889,"weights":{"position":0.03063499741256237,"roll":-3.9068360328674316,"rosette":-1.348829746246338,"removeEnemyPiece":-0.2914397716522217}},"24":{"bias":-1.2591290473937988,"weights":{"position":1.719254493713379,"roll":-3.5947604179382324,"rosette":-0.48865067958831787,"removeEnemyPiece":-4.9773712158203125}},"25":{"bias":-1.3577237129211426,"weights":{"position":0.3874918520450592,"roll":-2.1538126468658447,"rosette":1.4232155084609985,"removeEnemyPiece":0.7586100697517395}},"26":{"bias":-0.8508737683296204,"weights":{"position":0.8657785654067993,"roll":-0.7819688320159912,"rosette":0.17022879421710968,"removeEnemyPiece":0.03694183751940727}},"27":{"bias":-0.4013007581233978,"weights":{"position":-0.05034399405121803,"roll":-0.8137405514717102,"rosette":-0.9839567542076111,"removeEnemyPiece":-0.3500702381134033}},"28":{"bias":-0.31128138303756714,"weights":{"position":-0.1081627607345581,"roll":-0.811713457107544,"rosette":-0.6820799112319946,"removeEnemyPiece":-0.08201854676008224}},"29":{"bias":-0.03838180750608444,"weights":{"position":-0.8199281692504883,"roll":-1.6446000337600708,"rosette":-0.9911500215530396,"removeEnemyPiece":-0.3979703485965729}},"30":{"bias":-1.6917169094085693,"weights":{"position":-7.265064239501953,"roll":-2.616763114929199,"rosette":0.39080995321273804,"removeEnemyPiece":-0.2093210518360138}},"31":{"bias":-0.7631807923316956,"weights":{"position":0.42041274905204773,"roll":-1.2135990858078003,"rosette":0.637840211391449,"removeEnemyPiece":-0.006893170531839132}}},{"0":{"bias":-0.10351748764514923,"weights":{"0":0.6515181064605713,"1":0.3097231090068817,"2":0.26866278052330017,"3":0.3315507173538208,"4":-0.14251708984375,"5":-0.6152357459068298,"6":0.20094627141952515,"7":0.11261896789073944,"8":-1.6272270679473877,"9":-0.02994724176824093,"10":0.5094053149223328,"11":0.8844507336616516,"12":-0.31902268528938293,"13":0.5834949016571045,"14":-0.3117428719997406,"15":0.10664224624633789,"16":-0.0848570466041565,"17":-0.054742712527513504,"18":-0.4671053886413574,"19":0.5236197113990784,"20":0.051762085407972336,"21":0.7306388020515442,"22":0.06955946236848831,"23":0.6964724659919739,"24":0.7084367871284485,"25":-0.6439864635467529,"26":-0.5182092785835266,"27":0.16758252680301666,"28":0.18767473101615906,"29":0.06286385655403137,"30":-2.7882089614868164,"31":-0.17921678721904755}},"1":{"bias":0.1995920091867447,"weights":{"0":0.09301911294460297,"1":0.06110839918255806,"2":-0.3106502592563629,"3":-0.26210322976112366,"4":0.2222253978252411,"5":-1.1893130540847778,"6":0.2637636661529541,"7":1.0026861429214478,"8":-0.8501344919204712,"9":0.032021161168813705,"10":0.4146694242954254,"11":0.46883177757263184,"12":-1.3511531352996826,"13":0.24071088433265686,"14":-1.0983222723007202,"15":0.07289805263280869,"16":0.11835192143917084,"17":0.13345544040203094,"18":-0.9464712142944336,"19":0.3088236451148987,"20":0.046842366456985474,"21":0.5321956276893616,"22":-0.11948142200708389,"23":1.4339593648910522,"24":2.171534776687622,"25":-0.29975444078445435,"26":0.26763954758644104,"27":0.008816360495984554,"28":-0.07934700697660446,"29":0.45478448271751404,"30":-1.1543818712234497,"31":0.1112094596028328}},"2":{"bias":-0.006182752549648285,"weights":{"0":0.5002161264419556,"1":0.25274157524108887,"2":-0.14010216295719147,"3":-0.09729316830635071,"4":-0.1625998616218567,"5":-0.17758230865001678,"6":0.3399007320404053,"7":0.5547913312911987,"8":-0.8287029266357422,"9":0.4269208014011383,"10":0.34110942482948303,"11":0.41149935126304626,"12":-0.20297862589359283,"13":1.1608495712280273,"14":-0.28567904233932495,"15":0.1901964545249939,"16":0.2850005626678467,"17":0.3640439510345459,"18":-0.3264114260673523,"19":1.124863624572754,"20":-0.20073997974395752,"21":1.3383616209030151,"22":0.16520702838897705,"23":0.6106939315795898,"24":0.15678903460502625,"25":-0.9888745546340942,"26":-0.15026737749576569,"27":0.2768857181072235,"28":0.19552858173847198,"29":0.415262907743454,"30":-0.8635026812553406,"31":-0.0805373266339302}},"3":{"bias":0.003326575504615903,"weights":{"0":0.5782298445701599,"1":0.20252278447151184,"2":0.07745140790939331,"3":0.16418029367923737,"4":0.14954151213169098,"5":-0.3142959773540497,"6":0.36314865946769714,"7":-0.04535338282585144,"8":-1.6484016180038452,"9":0.04654315486550331,"10":0.1556876301765442,"11":0.6176306009292603,"12":-0.4421289265155792,"13":0.39104706048965454,"14":-0.10247133672237396,"15":0.11716736108064651,"16":-0.2844007611274719,"17":0.07425194978713989,"18":-0.23782707750797272,"19":0.35117653012275696,"20":0.2095327526330948,"21":0.6593850255012512,"22":0.33121660351753235,"23":0.47087034583091736,"24":0.45687001943588257,"25":-0.5164545178413391,"26":-0.4236830770969391,"27":0.2056766301393509,"28":-0.03332953527569771,"29":0.12778659164905548,"30":-2.4058103561401367,"31":-0.08678875118494034}},"4":{"bias":-0.29004889726638794,"weights":{"0":-0.2925582230091095,"1":-0.15389560163021088,"2":-0.0480278916656971,"3":0.07659915834665298,"4":-0.10725513100624084,"5":0.39504650235176086,"6":-0.09570325911045074,"7":-0.3966403901576996,"8":0.7109309434890747,"9":-0.2344692498445511,"10":-0.4404795467853546,"11":-0.4948626458644867,"12":0.43784603476524353,"13":-0.6479538083076477,"14":0.11598186194896698,"15":-0.23579509556293488,"16":-0.011408894322812557,"17":-0.08231542259454727,"18":0.19831764698028564,"19":-0.7715930342674255,"20":0.004946315195411444,"21":-0.7919281125068665,"22":-0.29827186465263367,"23":-0.2869502902030945,"24":-0.38534629344940186,"25":0.2820570170879364,"26":0.05590829253196716,"27":-0.1399940848350525,"28":-0.16729791462421417,"29":-0.41004130244255066,"30":0.40553018450737,"31":-0.05953919142484665}},"5":{"bias":-0.2574654817581177,"weights":{"0":-0.2727763056755066,"1":-0.2818398177623749,"2":0.12459085881710052,"3":0.2089761644601822,"4":0.1663839966058731,"5":0.33033591508865356,"6":-0.10970478504896164,"7":-0.21964915096759796,"8":0.2935630679130554,"9":-0.28599467873573303,"10":-0.39926382899284363,"11":-0.6053237915039062,"12":0.06651526689529419,"13":-0.6168485283851624,"14":0.0418599508702755,"15":-0.2662961184978485,"16":-0.18868759274482727,"17":-0.3605737090110779,"18":0.31443125009536743,"19":-0.7415135502815247,"20":0.04306185618042946,"21":-0.5213412046432495,"22":-0.3345595598220825,"23":-0.45052599906921387,"24":-0.3327100872993469,"25":0.43266761302948,"26":0.051173873245716095,"27":-0.1043970137834549,"28":-0.17234499752521515,"29":-0.14298318326473236,"30":0.3439469039440155,"31":0.11049157381057739}},"6":{"bias":0.10007573664188385,"weights":{"0":-0.15931324660778046,"1":0.1720249056816101,"2":0.21458111703395844,"3":0.4977000653743744,"4":-0.24667593836784363,"5":1.1699471473693848,"6":-0.56717848777771,"7":-1.2253215312957764,"8":0.6045066118240356,"9":-0.38063299655914307,"10":-0.5157688856124878,"11":-0.38477250933647156,"12":1.2135804891586304,"13":-0.24068611860275269,"14":1.1873083114624023,"15":-0.11447696387767792,"16":-0.1755184680223465,"17":-0.5243082642555237,"18":0.9220510125160217,"19":-0.20612846314907074,"20":0.4441905617713928,"21":-0.4486823081970215,"22":0.11322944611310959,"23":-1.6896026134490967,"24":-2.75984787940979,"25":0.21463710069656372,"26":-0.3908187448978424,"27":-0.09380795061588287,"28":-0.06748027354478836,"29":-0.5682225227355957,"30":0.9523534178733826,"31":-0.4612523317337036}},"7":{"bias":0.0209659393876791,"weights":{"0":0.6161741614341736,"1":-0.042279232293367386,"2":-0.18271130323410034,"3":-0.35931092500686646,"4":0.027335265651345253,"5":-0.493169903755188,"6":-0.035913869738578796,"7":1.2789486646652222,"8":-1.1879899501800537,"9":0.07528109103441238,"10":0.050002679228782654,"11":0.4972737729549408,"12":-0.5549947023391724,"13":0.9355074167251587,"14":-0.49408313632011414,"15":0.25676625967025757,"16":0.5159429907798767,"17":0.14849646389484406,"18":-0.363297700881958,"19":1.132422924041748,"20":-0.17751610279083252,"21":1.350533366203308,"22":0.32416972517967224,"23":0.7952099442481995,"24":0.621406078338623,"25":-0.9833645224571228,"26":0.04964958876371384,"27":0.15637922286987305,"28":0.11389174312353134,"29":0.26933395862579346,"30":-3.748084545135498,"31":-0.11739934980869293}},"8":{"bias":-0.16328898072242737,"weights":{"0":-0.09888362139463425,"1":-0.10677298158407211,"2":0.12199260294437408,"3":-0.2017841637134552,"4":0.031149137765169144,"5":-0.17030730843544006,"6":0.1765458583831787,"7":0.15940959751605988,"8":-0.2875465750694275,"9":-0.035108622163534164,"10":0.12757834792137146,"11":-0.0070688179694116116,"12":-0.3931129276752472,"13":-0.11702384054660797,"14":-0.31495678424835205,"15":0.1945975124835968,"16":0.1328222155570984,"17":0.14471398293972015,"18":-0.26005876064300537,"19":-0.07387536764144897,"20":-0.0691627711057663,"21":-0.13536646962165833,"22":0.18545100092887878,"23":0.43976446986198425,"24":0.47146931290626526,"25":-0.17970512807369232,"26":0.014304360374808311,"27":0.029648469761013985,"28":0.1649918407201767,"29":0.05316884070634842,"30":-0.5733290314674377,"31":0.09574195742607117}},"9":{"bias":-0.13343720138072968,"weights":{"0":-0.572548508644104,"1":-0.2527048885822296,"2":0.11032253503799438,"3":0.01613594964146614,"4":0.10109372437000275,"5":0.45141470432281494,"6":-0.44289258122444153,"7":-0.6584739685058594,"8":1.2802871465682983,"9":-0.29474619030952454,"10":-0.7051114439964294,"11":-0.7050580978393555,"12":0.8436344265937805,"13":-0.614945113658905,"14":0.6528584957122803,"15":-0.20342016220092773,"16":-0.04673757404088974,"17":-0.21250537037849426,"18":0.4593684673309326,"19":-0.7057880163192749,"20":-0.1240651085972786,"21":-0.9298069477081299,"22":-0.23426012694835663,"23":-1.077987551689148,"24":-1.5990016460418701,"25":0.29276934266090393,"26":-0.05583646893501282,"27":-0.3364783227443695,"28":-0.21687807142734528,"29":-0.37491849064826965,"30":2.018939256668091,"31":0.0689997673034668}},"10":{"bias":-0.05259980633854866,"weights":{"0":-0.03457276150584221,"1":-0.2314361333847046,"2":0.07434748113155365,"3":-0.21709197759628296,"4":-0.04675215110182762,"5":0.10181809216737747,"6":-0.06128358095884323,"7":-0.22341082990169525,"8":0.17249934375286102,"9":-0.11404384672641754,"10":-0.21410688757896423,"11":-0.1933937519788742,"12":0.17178204655647278,"13":-0.3946492373943329,"14":0.24200934171676636,"15":-0.3093782663345337,"16":-0.25163590908050537,"17":-0.04601510614156723,"18":-0.09639686346054077,"19":-0.19030143320560455,"20":-0.06979767978191376,"21":-0.21488718688488007,"22":-0.09097351133823395,"23":-0.5330753326416016,"24":-0.6185541749000549,"25":0.03865499421954155,"26":-0.28615009784698486,"27":0.025534741580486298,"28":-0.1894322633743286,"29":-0.19161851704120636,"30":0.3154248893260956,"31":-0.1943613588809967}},"11":{"bias":-0.25582438707351685,"weights":{"0":0.00436784652993083,"1":-0.11943261325359344,"2":-0.19679167866706848,"3":-0.20117442309856415,"4":-0.2196296751499176,"5":0.06536606699228287,"6":-0.09840777516365051,"7":-0.304487943649292,"8":-0.21064497530460358,"9":-0.0029840199276804924,"10":-0.21404965221881866,"11":-0.13207083940505981,"12":-0.11403405666351318,"13":-0.053199395537376404,"14":0.13888335227966309,"15":-0.2453276813030243,"16":0.011823193170130253,"17":-0.09020309150218964,"18":0.10286225378513336,"19":-0.14275607466697693,"20":0.0265671219676733,"21":-0.2594704329967499,"22":0.007255093660205603,"23":-0.25862541794776917,"24":-0.2987784445285797,"25":0.07374192029237747,"26":-0.041292086243629456,"27":-0.24950779974460602,"28":-0.16731984913349152,"29":-0.23133890330791473,"30":-0.08641580492258072,"31":-0.06993316113948822}},"12":{"bias":0.07327494770288467,"weights":{"0":0.7794409990310669,"1":0.12097502499818802,"2":0.2430882453918457,"3":0.30760809779167175,"4":0.12016431242227554,"5":-0.4291761517524719,"6":0.013193477876484394,"7":0.006511980667710304,"8":-1.2327334880828857,"9":-0.03803909942507744,"10":0.15013016760349274,"11":0.7863656878471375,"12":-0.4801460802555084,"13":0.5210682153701782,"14":-0.45666608214378357,"15":0.1112106516957283,"16":-0.07881972193717957,"17":0.24414882063865662,"18":-0.42925751209259033,"19":0.35805413126945496,"20":-0.0063664899207651615,"21":0.6878042221069336,"22":0.4063248038291931,"23":0.5654438734054565,"24":0.29622629284858704,"25":-0.34162184596061707,"26":-0.5047898888587952,"27":-0.06342334300279617,"28":0.23264050483703613,"29":-0.0027304450049996376,"30":-2.4463884830474854,"31":-0.07586351037025452}},"13":{"bias":0.04687447473406792,"weights":{"0":-0.4709423780441284,"1":-0.17749929428100586,"2":0.08122028410434723,"3":-0.0568174347281456,"4":0.07587385177612305,"5":0.45323169231414795,"6":-0.2690757215023041,"7":-0.25271257758140564,"8":0.9110791087150574,"9":-0.3557652533054352,"10":-0.38278430700302124,"11":-0.6547242403030396,"12":0.5071302056312561,"13":-0.614432156085968,"14":0.23559673130512238,"15":-0.1528877168893814,"16":-0.25394782423973083,"17":-0.2336452454328537,"18":0.186074897646904,"19":-0.7345278859138489,"20":-0.01052072737365961,"21":-0.8414703011512756,"22":-0.1837911754846573,"23":-0.7508692145347595,"24":-0.8495250344276428,"25":0.3849824070930481,"26":0.19283722341060638,"27":-0.198744535446167,"28":-0.1609630584716797,"29":-0.25743943452835083,"30":0.9996745586395264,"31":-0.1557159274816513}},"14":{"bias":0.10989115387201309,"weights":{"0":0.02681594341993332,"1":0.23182989656925201,"2":0.36922988295555115,"3":0.19972962141036987,"4":-0.2461388260126114,"5":1.179539680480957,"6":-0.4357863664627075,"7":-1.2509138584136963,"8":0.5094426274299622,"9":-0.04773005470633507,"10":-0.571361780166626,"11":-0.5122350454330444,"12":1.4180283546447754,"13":-0.060922037810087204,"14":1.155946135520935,"15":-0.11208337545394897,"16":-0.33071619272232056,"17":-0.42151573300361633,"18":0.9802152514457703,"19":-0.2596755027770996,"20":0.33254948258399963,"21":-0.5449889898300171,"22":-0.11867006123065948,"23":-1.4291698932647705,"24":-2.883047580718994,"25":0.3003699779510498,"26":-0.7128478288650513,"27":-0.3056373596191406,"28":-0.04363479092717171,"29":-0.7376033067703247,"30":0.8439452052116394,"31":-0.31742730736732483}},"15":{"bias":-0.19848832488059998,"weights":{"0":-0.5309716463088989,"1":-0.25601258873939514,"2":-0.019727755337953568,"3":-0.021048177033662796,"4":0.04103460907936096,"5":0.6500317454338074,"6":-0.35932278633117676,"7":-0.7201074957847595,"8":1.294411063194275,"9":-0.24398285150527954,"10":-0.5880985260009766,"11":-0.7931705713272095,"12":0.7309683561325073,"13":-0.7180135846138,"14":0.4438911974430084,"15":-0.18091826140880585,"16":-0.04563501104712486,"17":-0.38990023732185364,"18":0.5231082439422607,"19":-0.6414943337440491,"20":-0.23922604322433472,"21":-0.8073939085006714,"22":-0.049087539315223694,"23":-1.0043580532073975,"24":-1.4237455129623413,"25":0.44315382838249207,"26":0.06301143020391464,"27":-0.17328965663909912,"28":-0.03529069945216179,"29":-0.37672558426856995,"30":1.9770876169204712,"31":0.004898794926702976}},"16":{"bias":0.05697659030556679,"weights":{"0":-0.5050019025802612,"1":0.08903847634792328,"2":-0.07481519132852554,"3":-0.025215238332748413,"4":0.03893899545073509,"5":0.4549844264984131,"6":-0.23973318934440613,"7":-0.7004742622375488,"8":1.1616731882095337,"9":-0.24821089208126068,"10":-0.47059714794158936,"11":-0.7977071404457092,"12":0.6039767861366272,"13":-0.7154852747917175,"14":0.549148678779602,"15":-0.17939266562461853,"16":-0.3621583878993988,"17":-0.16433162987232208,"18":0.33160337805747986,"19":-0.8256114721298218,"20":-0.033696167171001434,"21":-0.889100193977356,"22":-0.043184272944927216,"23":-0.8380348086357117,"24":-1.133363127708435,"25":0.6460599303245544,"26":-0.023345230147242546,"27":-0.11226927489042282,"28":-0.16359995305538177,"29":-0.5725308656692505,"30":2.156897783279419,"31":0.023781318217515945}},"17":{"bias":-0.22907236218452454,"weights":{"0":-0.6734319925308228,"1":-0.2131887972354889,"2":-0.09344004094600677,"3":0.2879541516304016,"4":-0.004089940804988146,"5":0.612104594707489,"6":-0.2565317153930664,"7":-0.707286536693573,"8":1.021148681640625,"9":-0.34891045093536377,"10":-0.2381739318370819,"11":-0.7637264132499695,"12":0.7572298049926758,"13":-0.6313466429710388,"14":0.6567428112030029,"15":-0.3580581843852997,"16":-0.3474997580051422,"17":-0.22992107272148132,"18":0.5638294219970703,"19":-0.8861324787139893,"20":0.1745179146528244,"21":-1.1363321542739868,"22":-0.24908407032489777,"23":-0.603778064250946,"24":-1.181302547454834,"25":0.8249323964118958,"26":0.16383226215839386,"27":-0.1970778852701187,"28":-0.2646195590496063,"29":-0.3810782730579376,"30":2.8707897663116455,"31":-0.16726714372634888}},"18":{"bias":-0.16298162937164307,"weights":{"0":-0.3271840214729309,"1":-0.037535738199949265,"2":0.09404401481151581,"3":-0.22953487932682037,"4":0.07439355552196503,"5":0.17519444227218628,"6":0.0019554803147912025,"7":-0.09356849640607834,"8":0.0469551645219326,"9":-0.17247197031974792,"10":-0.3392045795917511,"11":-0.45285654067993164,"12":-0.023545486852526665,"13":-0.4311648905277252,"14":0.017873849719762802,"15":-0.14528818428516388,"16":0.11060650646686554,"17":-0.07338690012693405,"18":0.09775009006261826,"19":-0.5218848586082458,"20":0.16048407554626465,"21":-0.5695839524269104,"22":-0.2776801884174347,"23":-0.2928863763809204,"24":-0.20614376664161682,"25":0.08216920495033264,"26":0.10423500835895538,"27":-0.22401490807533264,"28":-0.1730862557888031,"29":-0.11273449659347534,"30":0.2920442223548889,"31":-0.043058719485998154}},"19":{"bias":-0.017376195639371872,"weights":{"0":-0.29112985730171204,"1":-0.10610373318195343,"2":-0.1710871011018753,"3":-0.19202300906181335,"4":0.16001754999160767,"5":-0.19830496609210968,"6":0.1301407516002655,"7":0.02535628154873848,"8":-0.16493073105812073,"9":-0.08715369552373886,"10":0.02752566710114479,"11":-0.23018155992031097,"12":-0.013998904265463352,"13":-0.4117247462272644,"14":0.01879562810063362,"15":-0.17507719993591309,"16":-0.1792641133069992,"17":-0.12703274190425873,"18":0.029508627951145172,"19":-0.35693779587745667,"20":-0.019445085898041725,"21":-0.13999228179454803,"22":-0.17690344154834747,"23":0.06199255585670471,"24":-0.06491905450820923,"25":-0.01303957961499691,"26":0.15235120058059692,"27":-0.08832629024982452,"28":0.0018235162133350968,"29":-0.018608275800943375,"30":0.004261348862200975,"31":-0.15693789720535278}},"20":{"bias":-0.08784180879592896,"weights":{"0":0.8432944416999817,"1":0.20907698571681976,"2":-0.17823372781276703,"3":-0.2343776822090149,"4":0.050254568457603455,"5":-0.5091131925582886,"6":0.16445904970169067,"7":0.9485306143760681,"8":-1.1662715673446655,"9":0.1947920024394989,"10":0.0529748797416687,"11":0.1509234458208084,"12":-0.5411348938941956,"13":0.8626975417137146,"14":-0.3605893552303314,"15":-0.04923892393708229,"16":0.3501286804676056,"17":0.04874934256076813,"18":-0.09286182373762131,"19":1.1085681915283203,"20":-0.031017620116472244,"21":1.2404299974441528,"22":0.03175981342792511,"23":0.48973971605300903,"24":0.3821472227573395,"25":-0.6844800114631653,"26":0.24224905669689178,"27":-0.06211953982710838,"28":0.15843844413757324,"29":0.2171042412519455,"30":-3.4458956718444824,"31":-0.036774735897779465}},"21":{"bias":-0.10863939672708511,"weights":{"0":-0.5521021485328674,"1":-0.3065100908279419,"2":0.12435167282819748,"3":0.2935955822467804,"4":0.16542290151119232,"5":0.4535110592842102,"6":-0.20396581292152405,"7":-0.8269289135932922,"8":0.8977003693580627,"9":-0.22763694822788239,"10":-0.33926913142204285,"11":-0.5675238370895386,"12":0.4552902579307556,"13":-1.0228108167648315,"14":0.48728224635124207,"15":-0.12095639109611511,"16":-0.39781996607780457,"17":-0.1854863166809082,"18":0.1529429703950882,"19":-0.9058952331542969,"20":0.33356988430023193,"21":-0.9718365669250488,"22":-0.3775567412376404,"23":-0.7298030853271484,"24":-0.5604171752929688,"25":0.8437867164611816,"26":-0.014078454114496708,"27":-0.03377974033355713,"28":-0.28778526186943054,"29":-0.21908849477767944,"30":1.4753148555755615,"31":0.22022585570812225}},"22":{"bias":-0.17957568168640137,"weights":{"0":0.23483242094516754,"1":-0.12084461748600006,"2":0.1665807068347931,"3":-0.12260868400335312,"4":-0.26153576374053955,"5":0.19830422103405,"6":-0.08363831043243408,"7":-0.2706218361854553,"8":-0.16901889443397522,"9":-0.04364132136106491,"10":-0.01917654275894165,"11":0.03532075136899948,"12":0.0704151913523674,"13":0.31774911284446716,"14":0.23392465710639954,"15":-0.11957523971796036,"16":-0.00575656071305275,"17":-0.09505036473274231,"18":0.1164531484246254,"19":-0.01988516002893448,"20":0.193057119846344,"21":0.020272165536880493,"22":-0.15799735486507416,"23":-0.4452964961528778,"24":-0.5095891952514648,"25":-0.01389362383633852,"26":-0.4939343333244324,"27":-0.19412168860435486,"28":-0.1503109186887741,"29":-0.18301688134670258,"30":-0.21407125890254974,"31":-0.3819626271724701}},"23":{"bias":-0.09537452459335327,"weights":{"0":-0.2997780740261078,"1":-0.15830321609973907,"2":-0.03355279192328453,"3":0.15149272978305817,"4":-0.1945888102054596,"5":0.29731717705726624,"6":-0.2987196147441864,"7":-0.6171570420265198,"8":0.6822437644004822,"9":-0.1850421130657196,"10":-0.547316312789917,"11":-0.7742387056350708,"12":0.4621671140193939,"13":-0.4498070180416107,"14":0.5168218016624451,"15":-0.27487462759017944,"16":-0.01465604268014431,"17":-0.19927415251731873,"18":0.39164644479751587,"19":-0.7007673978805542,"20":-0.015620795078575611,"21":-0.8186314105987549,"22":-0.2280498743057251,"23":-0.7222432494163513,"24":-1.0158780813217163,"25":0.35497915744781494,"26":0.1556997001171112,"27":-0.30396783351898193,"28":-0.1608242392539978,"29":-0.41470107436180115,"30":1.613493800163269,"31":-0.1988840103149414}},"24":{"bias":-0.061356429010629654,"weights":{"0":-0.11791041493415833,"1":0.09542273730039597,"2":0.1387966126203537,"3":-0.19587552547454834,"4":-0.05173565447330475,"5":0.056692879647016525,"6":0.1778927892446518,"7":-0.017998477444052696,"8":-0.39749085903167725,"9":-0.059639133512973785,"10":-0.16490401327610016,"11":0.11618902534246445,"12":0.03552898392081261,"13":-0.08926265686750412,"14":0.04537298530340195,"15":-0.14780235290527344,"16":-0.27762749791145325,"17":-0.0035092434845864773,"18":-0.23824849724769592,"19":-0.12204492837190628,"20":0.13575346767902374,"21":-0.07714344561100006,"22":-0.07066559791564941,"23":-0.08860629051923752,"24":0.10992136597633362,"25":-0.0008218658622354269,"26":-0.19808045029640198,"27":-0.1436653584241867,"28":-0.06741084903478622,"29":0.0235002301633358,"30":-0.1632527858018875,"31":-0.22876398265361786}},"25":{"bias":0.04469684511423111,"weights":{"0":-0.7410644888877869,"1":0.04132404178380966,"2":0.28768298029899597,"3":0.04813869297504425,"4":0.11773375421762466,"5":0.3450069725513458,"6":-0.31887370347976685,"7":-0.9930917620658875,"8":0.9941261410713196,"9":-0.06557445973157883,"10":-0.5221831798553467,"11":-0.7464826107025146,"12":0.6873083114624023,"13":-1.0391265153884888,"14":0.6359149813652039,"15":-0.13600514829158783,"16":-0.5893073081970215,"17":-0.2136724889278412,"18":0.4522337317466736,"19":-0.7706782817840576,"20":0.13320454955101013,"21":-1.018600583076477,"22":-0.20055118203163147,"23":-0.7745700478553772,"24":-0.8208401203155518,"25":0.5192616581916809,"26":-0.16515980660915375,"27":-0.1869840919971466,"28":-0.09148770570755005,"29":-0.22340898215770721,"30":2.7505640983581543,"31":0.0598507821559906}},"26":{"bias":-0.14543555676937103,"weights":{"0":-0.4421897232532501,"1":-0.2616408169269562,"2":-0.2292776107788086,"3":-0.17390146851539612,"4":-0.22750256955623627,"5":0.12895795702934265,"6":-0.290233850479126,"7":-0.36586207151412964,"8":0.48569759726524353,"9":-0.2706271708011627,"10":-0.3744983375072479,"11":-0.30019044876098633,"12":0.27383947372436523,"13":-0.5188366770744324,"14":0.12861785292625427,"15":0.04727019742131233,"16":0.02730654366314411,"17":-0.2033274918794632,"18":0.07962159067392349,"19":-0.32515138387680054,"20":0.07921546697616577,"21":-0.33712074160575867,"22":-0.24062399566173553,"23":-0.26311761140823364,"24":-0.45212695002555847,"25":0.3482062816619873,"26":-0.0008245939388871193,"27":-0.2098017930984497,"28":-0.27613914012908936,"29":-0.3495066165924072,"30":0.6993451714515686,"31":-0.08990094810724258}},"27":{"bias":-0.05543782562017441,"weights":{"0":-0.3777463734149933,"1":0.003752010641619563,"2":0.06806609779596329,"3":-0.06239061430096626,"4":-0.061609089374542236,"5":0.171115905046463,"6":-0.3172878921031952,"7":-0.3658472001552582,"8":0.688573956489563,"9":-0.14571629464626312,"10":-0.4311986565589905,"11":-0.5512048602104187,"12":0.30541786551475525,"13":-0.7108616232872009,"14":0.17970649898052216,"15":-0.3890427350997925,"16":-0.33903956413269043,"17":-0.0963829979300499,"18":0.2585746645927429,"19":-0.4017172157764435,"20":-0.09382488578557968,"21":-0.5134688019752502,"22":-0.08604905009269714,"23":-0.5890463590621948,"24":-0.6505542993545532,"25":0.46797022223472595,"26":-0.16888801753520966,"27":-0.18995733559131622,"28":-0.23897288739681244,"29":-0.4345303475856781,"30":0.49864038825035095,"31":0.0016181053360924125}},"28":{"bias":-0.2948299050331116,"weights":{"0":-0.36566686630249023,"1":0.05227656662464142,"2":0.07601107656955719,"3":0.11655766516923904,"4":-0.02517606131732464,"5":0.2817685902118683,"6":-0.39070793986320496,"7":-0.4113866090774536,"8":0.7439301013946533,"9":-0.14535491168498993,"10":-0.23850402235984802,"11":-0.49643149971961975,"12":0.1720728576183319,"13":-0.7705705165863037,"14":0.4259509742259979,"15":-0.14266201853752136,"16":-0.021199194714426994,"17":-0.2690731883049011,"18":0.1602737456560135,"19":-0.782791256904602,"20":-0.030612576752901077,"21":-0.8140725493431091,"22":-0.2686249911785126,"23":-0.6389608979225159,"24":-0.7487093806266785,"25":0.6133820414543152,"26":0.1909562349319458,"27":-0.33083194494247437,"28":-0.37701869010925293,"29":-0.4057154059410095,"30":0.7155072093009949,"31":0.1797059029340744}},"29":{"bias":0.14804862439632416,"weights":{"0":0.6195658445358276,"1":0.115440733730793,"2":-0.23005445301532745,"3":-0.17651881277561188,"4":-0.22239145636558533,"5":-0.13899235427379608,"6":0.46033287048339844,"7":0.8302415013313293,"8":-0.9347122311592102,"9":0.11756213754415512,"10":0.48162218928337097,"11":0.7574693560600281,"12":-0.38652873039245605,"13":1.143284559249878,"14":-0.40280818939208984,"15":0.22838464379310608,"16":0.17847299575805664,"17":0.16953031718730927,"18":-0.3496852517127991,"19":1.1278932094573975,"20":0.0908680334687233,"21":1.0796910524368286,"22":0.08751369267702103,"23":0.5696409940719604,"24":0.6402296423912048,"25":-0.9641544818878174,"26":-0.10249806195497513,"27":0.372271329164505,"28":0.18901750445365906,"29":0.16538700461387634,"30":-1.1528626680374146,"31":-0.26335766911506653}},"30":{"bias":-0.0766386017203331,"weights":{"0":-0.2501692771911621,"1":-0.05795922130346298,"2":-0.0470743402838707,"3":0.10129132121801376,"4":0.006356903817504644,"5":0.16529522836208344,"6":-0.3840666115283966,"7":-0.4979095757007599,"8":0.06147369369864464,"9":-0.14455746114253998,"10":-0.1424352526664734,"11":-0.5479897260665894,"12":0.3530491590499878,"13":-0.640192449092865,"14":0.2972460389137268,"15":-0.21720781922340393,"16":-0.15907831490039825,"17":-0.2670036852359772,"18":-0.10086080431938171,"19":-0.5716891288757324,"20":0.08899746835231781,"21":-0.5428770780563354,"22":-0.2031622976064682,"23":-0.43688464164733887,"24":-0.32270899415016174,"25":0.2979930639266968,"26":0.12103253602981567,"27":-0.21598327159881592,"28":-0.09522349387407303,"29":-0.3351954221725464,"30":0.46469846367836,"31":0.024591606110334396}},"31":{"bias":-0.07600011676549911,"weights":{"0":0.33580145239830017,"1":-0.09764265269041061,"2":-0.1295682191848755,"3":-0.12638866901397705,"4":0.19706162810325623,"5":-0.5156751275062561,"6":0.027444062754511833,"7":0.1944192498922348,"8":-0.5243654251098633,"9":0.12053802609443665,"10":0.22058771550655365,"11":0.3138803243637085,"12":-0.4665711522102356,"13":-0.009040849283337593,"14":-0.1957109421491623,"15":-0.0029568360187113285,"16":0.04829002544283867,"17":0.16334637999534607,"18":-0.44614994525909424,"19":0.16499626636505127,"20":0.12162649631500244,"21":0.30761250853538513,"22":-0.06160645931959152,"23":0.4130447208881378,"24":0.5284900665283203,"25":-0.15132948756217957,"26":0.15175963938236237,"27":-0.06351276487112045,"28":0.2365611493587494,"29":0.2106253057718277,"30":-0.7783443927764893,"31":0.06826238334178925}}},{"0":{"bias":-0.3614313304424286,"weights":{"0":0.4264085590839386,"1":-1.2647490501403809,"2":0.16881072521209717,"3":0.4318557381629944,"4":0.3001903295516968,"5":0.11389513313770294,"6":1.7448562383651733,"7":-0.028959067538380623,"8":-0.40957391262054443,"9":0.7220554351806641,"10":0.2248438000679016,"11":0.12664933502674103,"12":0.20415355265140533,"13":0.41637828946113586,"14":2.058178663253784,"15":0.6179835796356201,"16":0.4066280424594879,"17":0.514850378036499,"18":0.09622795134782791,"19":-0.20161214470863342,"20":0.01732069067656994,"21":0.07099498808383942,"22":0.6058531999588013,"23":0.4885336458683014,"24":0.07826149463653564,"25":0.31903138756752014,"26":-0.0012916640844196081,"27":0.4292667508125305,"28":0.1889209747314453,"29":-0.08730369806289673,"30":0.037156201899051666,"31":-0.24441081285476685}},"1":{"bias":-0.5713769793510437,"weights":{"0":-0.8205063939094543,"1":-0.570642352104187,"2":-0.9081117510795593,"3":-0.42822039127349854,"4":0.1197846457362175,"5":0.20351043343544006,"6":-0.05615972727537155,"7":-0.7520935535430908,"8":-0.10649866610765457,"9":0.2622562050819397,"10":0.12817031145095825,"11":-0.1899299919605255,"12":-0.43988412618637085,"13":0.33678683638572693,"14":0.18609805405139923,"15":0.42421630024909973,"16":0.4522396922111511,"17":0.5731504559516907,"18":0.09951148927211761,"19":-0.18973702192306519,"20":-0.967512845993042,"21":0.2932674288749695,"22":-0.15846604108810425,"23":0.057036809623241425,"24":-0.04359107092022896,"25":0.5963309407234192,"26":0.31095874309539795,"27":0.047823820263147354,"28":0.3960730731487274,"29":-0.5709364414215088,"30":0.13670331239700317,"31":-0.13287360966205597}},"2":{"bias":-0.2741398513317108,"weights":{"0":-0.7115352153778076,"1":-0.23319433629512787,"2":-0.6230261325836182,"3":-0.5588915348052979,"4":0.11355052143335342,"5":0.00042695412412285805,"6":0.1166829839348793,"7":-0.8874973058700562,"8":-0.14295853674411774,"9":0.39547160267829895,"10":0.032175153493881226,"11":-0.014324608258903027,"12":-0.422773152589798,"13":0.19964298605918884,"14":0.020657861605286598,"15":0.10468577593564987,"16":0.34452155232429504,"17":0.3323655426502228,"18":-0.0356801338493824,"19":-0.11369183659553528,"20":-0.787654459476471,"21":0.34770938754081726,"22":-0.2744755148887634,"23":0.021882180124521255,"24":-0.06357412785291672,"25":0.15468642115592957,"26":0.08920667320489883,"27":0.23777541518211365,"28":0.3203197419643402,"29":-0.6219480037689209,"30":0.10747610777616501,"31":-0.23325347900390625}},"3":{"bias":-0.6438860297203064,"weights":{"0":-0.6650151014328003,"1":-0.4750126004219055,"2":-0.9563614726066589,"3":-0.6064803600311279,"4":0.09783529490232468,"5":0.20881639420986176,"6":0.07631801068782806,"7":-1.1251109838485718,"8":-0.2728886902332306,"9":0.2741248309612274,"10":0.20933066308498383,"11":-0.14809510111808777,"12":-0.6890655755996704,"13":0.25974881649017334,"14":0.20089878141880035,"15":0.480824738740921,"16":0.4064520597457886,"17":0.8191627264022827,"18":0.2177933156490326,"19":-0.09032639116048813,"20":-0.8834468722343445,"21":0.6134244203567505,"22":0.11308664083480835,"23":0.4670032262802124,"24":0.01800505816936493,"25":0.8066837787628174,"26":0.03513640910387039,"27":0.1670595407485962,"28":0.44819432497024536,"29":-0.7730765342712402,"30":0.08328146487474442,"31":-0.3052282929420471}},"4":{"bias":-0.5388343930244446,"weights":{"0":-0.4830721914768219,"1":-0.458782821893692,"2":-0.9202563166618347,"3":-0.507643461227417,"4":0.2723676264286041,"5":0.2384064942598343,"6":0.2557411193847656,"7":-1.0610954761505127,"8":-0.11526233702898026,"9":0.22756005823612213,"10":-0.15116308629512787,"11":0.1694023609161377,"12":-0.7273481488227844,"13":0.17972582578659058,"14":0.14715269207954407,"15":0.23624630272388458,"16":0.53364497423172,"17":0.4407581686973572,"18":0.18114377558231354,"19":-0.08150915056467056,"20":-0.7192550301551819,"21":0.6315138339996338,"22":-0.19204872846603394,"23":0.09026466310024261,"24":-0.12024734169244766,"25":0.5350669026374817,"26":0.2763773500919342,"27":0.10380309820175171,"28":0.15973488986492157,"29":-0.9143913388252258,"30":0.21097427606582642,"31":-0.0352584533393383}},"5":{"bias":-0.5713529586791992,"weights":{"0":-0.6142509579658508,"1":-0.4156036674976349,"2":-0.859447717666626,"3":-0.6573572754859924,"4":0.22063401341438293,"5":0.1088072806596756,"6":0.2763952612876892,"7":-0.8425121903419495,"8":-0.024553028866648674,"9":0.44310981035232544,"10":-0.042053114622831345,"11":0.0823405534029007,"12":-0.42980989813804626,"13":0.13084587454795837,"14":0.0035708665382117033,"15":0.1397618055343628,"16":0.5420268177986145,"17":0.3340205252170563,"18":0.08314339816570282,"19":0.14623139798641205,"20":-0.8221514821052551,"21":0.28542912006378174,"22":0.018241558223962784,"23":0.28508493304252625,"24":-0.2636375427246094,"25":0.3048951029777527,"26":0.28257596492767334,"27":0.0672556534409523,"28":0.37198296189308167,"29":-0.894205629825592,"30":0.27930325269699097,"31":-0.016842318698763847}},"6":{"bias":-0.4294784367084503,"weights":{"0":-0.5504071712493896,"1":-0.11340920627117157,"2":-0.742997944355011,"3":-0.3695145547389984,"4":0.28015780448913574,"5":0.12012652307748795,"6":-0.09786577522754669,"7":-0.5130342245101929,"8":0.04592052102088928,"9":0.28917446732521057,"10":0.14995063841342926,"11":-0.1740785539150238,"12":-0.6292641758918762,"13":0.03545265644788742,"14":-0.08669060468673706,"15":0.2752707600593567,"16":0.13855059444904327,"17":0.39866796135902405,"18":0.15136778354644775,"19":-0.12367357313632965,"20":-0.5076271891593933,"21":0.2624345123767853,"22":-0.07130482792854309,"23":0.23099038004875183,"24":-0.16226676106452942,"25":0.2811570167541504,"26":0.1558869332075119,"27":0.021773498505353928,"28":0.16164863109588623,"29":-0.7774718999862671,"30":0.013413196429610252,"31":-0.34323760867118835}},"7":{"bias":-0.5204436779022217,"weights":{"0":-0.7320199608802795,"1":-0.356911301612854,"2":-0.6693190336227417,"3":-0.5272088050842285,"4":0.3516280949115753,"5":0.18827900290489197,"6":0.10420476645231247,"7":-1.0033477544784546,"8":-0.10343150049448013,"9":0.2311674952507019,"10":0.09918181598186493,"11":0.025539955124258995,"12":-0.6889289617538452,"13":0.3009163439273834,"14":0.1385563462972641,"15":0.19741307199001312,"16":0.29898327589035034,"17":0.4623062014579773,"18":0.06811022013425827,"19":0.19333617389202118,"20":-0.8121181726455688,"21":0.4037434458732605,"22":-0.196097731590271,"23":0.35184037685394287,"24":-0.1418868452310562,"25":0.6453219652175903,"26":0.014041977003216743,"27":-0.007534060161560774,"28":0.40491077303886414,"29":-0.6068937182426453,"30":0.07699064165353775,"31":-0.3373599946498871}},"8":{"bias":-0.4371193051338196,"weights":{"0":-0.6456490755081177,"1":-0.4848468005657196,"2":-0.6615799069404602,"3":-0.6570883989334106,"4":0.22434131801128387,"5":0.026197049766778946,"6":0.03179246187210083,"7":-0.8788630366325378,"8":-0.0015661964425817132,"9":0.18703864514827728,"10":-0.04733522608876228,"11":-0.03857409954071045,"12":-0.3299492597579956,"13":0.04766051843762398,"14":0.07032424956560135,"15":0.420113205909729,"16":0.3318950831890106,"17":0.34501898288726807,"18":0.03257143869996071,"19":0.1060788631439209,"20":-0.5301516652107239,"21":0.1479906141757965,"22":-0.12652510404586792,"23":0.059080593287944794,"24":0.05071381479501724,"25":0.3227323889732361,"26":0.2752858102321625,"27":0.0105783985927701,"28":0.3795214891433716,"29":-0.9056817889213562,"30":-0.01064932718873024,"31":-0.12002221494913101}},"9":{"bias":-0.47339558601379395,"weights":{"0":-0.7654581069946289,"1":-0.4057147800922394,"2":-0.7743918895721436,"3":-0.572454571723938,"4":0.049433812499046326,"5":0.2084759622812271,"6":0.2716754078865051,"7":-0.9782465100288391,"8":-0.014599724672734737,"9":0.14698925614356995,"10":-0.10254628211259842,"11":-0.20622318983078003,"12":-0.5148271322250366,"13":0.4882715344429016,"14":0.3065260052680969,"15":0.33475980162620544,"16":0.44855326414108276,"17":0.5292488932609558,"18":0.02467804029583931,"19":0.10395815223455429,"20":-1.0081713199615479,"21":0.28062665462493896,"22":-0.3050723075866699,"23":0.44204679131507874,"24":-0.25247034430503845,"25":0.44894322752952576,"26":-0.05936284735798836,"27":0.3572624921798706,"28":0.4344988763332367,"29":-0.7379258871078491,"30":-0.03334794193506241,"31":-0.2018965184688568}},"10":{"bias":-0.38749274611473083,"weights":{"0":-0.5634999871253967,"1":-0.4479302763938904,"2":-0.858476459980011,"3":-0.5956767797470093,"4":0.12602634727954865,"5":0.34581589698791504,"6":0.07185199111700058,"7":-0.9120023250579834,"8":0.04418737068772316,"9":0.3854048550128937,"10":0.17017261683940887,"11":0.048892050981521606,"12":-0.4946078658103943,"13":0.29598456621170044,"14":0.06010367348790169,"15":0.44925370812416077,"16":0.27527451515197754,"17":0.47494596242904663,"18":0.267290860414505,"19":-0.1444893628358841,"20":-0.9266037344932556,"21":0.4450882375240326,"22":-0.22190426290035248,"23":0.36067086458206177,"24":-0.057725612074136734,"25":0.5258384943008423,"26":-0.017950071021914482,"27":0.13577993214130402,"28":0.21258819103240967,"29":-0.8774973750114441,"30":0.0494241863489151,"31":-0.24172334372997284}},"11":{"bias":-0.731099009513855,"weights":{"0":-0.8483270406723022,"1":-0.4699689447879791,"2":-0.9737837314605713,"3":-0.7861776947975159,"4":0.3639609217643738,"5":0.09781257808208466,"6":0.38700127601623535,"7":-1.0144011974334717,"8":-0.007268249057233334,"9":0.4919249713420868,"10":0.08092500269412994,"11":-0.011410301551222801,"12":-0.5986329317092896,"13":0.34584376215934753,"14":0.2648324966430664,"15":0.27198922634124756,"16":0.47171056270599365,"17":0.7175872325897217,"18":0.09494148939847946,"19":0.031197931617498398,"20":-1.033477544784546,"21":0.6801114678382874,"22":-0.05025871470570564,"23":0.15825766324996948,"24":-0.027363590896129608,"25":0.7890501618385315,"26":0.31581541895866394,"27":0.3736286163330078,"28":0.39974838495254517,"29":-0.8874997496604919,"30":0.17412236332893372,"31":-0.2121134102344513}},"12":{"bias":-0.38350704312324524,"weights":{"0":-0.7682006359100342,"1":-0.36784106492996216,"2":-0.7691019177436829,"3":-0.6943665146827698,"4":0.27345773577690125,"5":0.29661229252815247,"6":0.15171554684638977,"7":-0.8226759433746338,"8":-0.12942448258399963,"9":0.28855177760124207,"10":-0.0517716184258461,"11":-0.14782294631004333,"12":-0.6213022470474243,"13":0.23195040225982666,"14":0.21054115891456604,"15":0.23259237408638,"16":0.47127044200897217,"17":0.4391822814941406,"18":0.14372919499874115,"19":-0.15321673452854156,"20":-0.9995715618133545,"21":0.5473541021347046,"22":-0.2404884546995163,"23":0.12426768988370895,"24":0.03679301589727402,"25":0.6096370220184326,"26":0.3046395182609558,"27":0.15011119842529297,"28":0.267676442861557,"29":-0.8235487341880798,"30":0.18276885151863098,"31":-0.17148181796073914}},"13":{"bias":-0.5525262355804443,"weights":{"0":-0.7025752067565918,"1":-0.5661491751670837,"2":-0.8750969767570496,"3":-0.5489467978477478,"4":0.34143587946891785,"5":0.32370853424072266,"6":0.3211045563220978,"7":-1.0984874963760376,"8":-0.24121615290641785,"9":0.5681599974632263,"10":0.15333667397499084,"11":-0.04350966587662697,"12":-0.5535826683044434,"13":0.35222330689430237,"14":0.11752405017614365,"15":0.48480477929115295,"16":0.41088202595710754,"17":0.7207804322242737,"18":0.17641273140907288,"19":0.020879240706562996,"20":-1.118805170059204,"21":0.6696838140487671,"22":-0.13679596781730652,"23":0.11665142327547073,"24":0.07219547778367996,"25":0.6090745329856873,"26":-0.02170488052070141,"27":0.09056553989648819,"28":0.18633106350898743,"29":-0.8907813429832458,"30":0.10287459194660187,"31":-0.26677942276000977}},"14":{"bias":-0.5001099705696106,"weights":{"0":-0.6152619123458862,"1":-0.2889725863933563,"2":-0.65714430809021,"3":-0.4282683730125427,"4":0.2836787700653076,"5":0.16408848762512207,"6":0.20178860425949097,"7":-0.936852216720581,"8":-0.20656602084636688,"9":0.44785842299461365,"10":0.1923517882823944,"11":0.09855794161558151,"12":-0.3257460594177246,"13":0.09294728934764862,"14":0.026340976357460022,"15":0.2472195029258728,"16":0.14390382170677185,"17":0.2644377052783966,"18":0.24088677763938904,"19":0.07756766676902771,"20":-0.7615065574645996,"21":0.37422850728034973,"22":-0.2288857251405716,"23":0.3123389184474945,"24":-0.04458542540669441,"25":0.2641045153141022,"26":0.11411584913730621,"27":0.05618376284837723,"28":0.17163410782814026,"29":-0.9076147675514221,"30":-0.024610837921500206,"31":-0.3608977794647217}},"15":{"bias":-0.6006326675415039,"weights":{"0":-0.7014732956886292,"1":-0.47245004773139954,"2":-0.7632500529289246,"3":-0.5379313230514526,"4":0.09136119484901428,"5":0.14704380929470062,"6":0.07903309166431427,"7":-1.0099619626998901,"8":-0.17089404165744781,"9":0.40762388706207275,"10":0.10116979479789734,"11":0.08454157412052155,"12":-0.69613116979599,"13":0.4839702546596527,"14":0.07709475606679916,"15":0.4382990896701813,"16":0.2404457926750183,"17":0.47824451327323914,"18":-0.01309466827660799,"19":-0.021055974066257477,"20":-0.9252817034721375,"21":0.5249153971672058,"22":-0.10531426966190338,"23":0.22830183804035187,"24":0.14788669347763062,"25":0.6361966729164124,"26":0.3289754092693329,"27":0.1372683048248291,"28":0.08901127427816391,"29":-0.5765883922576904,"30":0.16088438034057617,"31":-0.05921119824051857}},"16":{"bias":-0.6437246799468994,"weights":{"0":-0.594382643699646,"1":-0.4287084937095642,"2":-0.5806990265846252,"3":-0.47681736946105957,"4":0.07165105640888214,"5":0.11333785206079483,"6":0.12276029586791992,"7":-0.9050043821334839,"8":-0.27854740619659424,"9":0.480532705783844,"10":-0.01673595979809761,"11":-0.14927347004413605,"12":-0.5958805680274963,"13":0.2926090955734253,"14":-0.0526171512901783,"15":0.4954175353050232,"16":0.42647096514701843,"17":0.30748456716537476,"18":-0.020575037226080894,"19":0.15690214931964874,"20":-0.5921694040298462,"21":0.5593952536582947,"22":-0.20472802221775055,"23":0.11005796492099762,"24":-0.13217243552207947,"25":0.4775189161300659,"26":0.2504861056804657,"27":0.35814332962036133,"28":0.19696447253227234,"29":-0.8751139640808105,"30":0.322793185710907,"31":-0.30132409930229187}},"17":{"bias":-0.38995257019996643,"weights":{"0":-0.5558942556381226,"1":-0.5477430820465088,"2":-0.7905960083007812,"3":-0.43898627161979675,"4":0.33495858311653137,"5":0.14654329419136047,"6":0.2042962610721588,"7":-0.7233765721321106,"8":0.037286192178726196,"9":0.0695962905883789,"10":0.08262906223535538,"11":0.11740683019161224,"12":-0.7020167708396912,"13":0.305433064699173,"14":0.04306792467832565,"15":0.16922497749328613,"16":0.47438544034957886,"17":0.280474454164505,"18":0.0934874415397644,"19":-0.15300388634204865,"20":-0.9519991278648376,"21":0.2749263048171997,"22":-0.24886737763881683,"23":0.2581528425216675,"24":0.015572580508887768,"25":0.21564126014709473,"26":0.11475811898708344,"27":0.31511643528938293,"28":0.06831438839435577,"29":-0.7865706086158752,"30":-0.0067205848172307014,"31":-0.0013693551300093532}},"18":{"bias":-0.7290336489677429,"weights":{"0":-0.5557021498680115,"1":-0.5816071033477783,"2":-0.9673777222633362,"3":-0.7365049719810486,"4":0.43008390069007874,"5":0.41318783164024353,"6":0.25676974654197693,"7":-1.2260814905166626,"8":-0.04950769245624542,"9":0.34139004349708557,"10":0.18240180611610413,"11":-0.025063158944249153,"12":-0.548815906047821,"13":0.1718127727508545,"14":0.3162781596183777,"15":0.24762727320194244,"16":0.5227929949760437,"17":0.6318263411521912,"18":0.2421657145023346,"19":-0.08406288176774979,"20":-0.7657912969589233,"21":0.7438909411430359,"22":-0.09020023047924042,"23":0.520301342010498,"24":-0.24779538810253143,"25":0.5007964968681335,"26":0.1884838044643402,"27":0.03786485269665718,"28":0.19734208285808563,"29":-1.022934913635254,"30":0.35525283217430115,"31":-0.22193866968154907}},"19":{"bias":-0.4199613034725189,"weights":{"0":-0.24285569787025452,"1":-0.12236285954713821,"2":-0.5267118215560913,"3":-0.3466658592224121,"4":0.21658068895339966,"5":0.1095018982887268,"6":0.04228528216481209,"7":-0.5549574494361877,"8":0.016795901581645012,"9":-0.12051428854465485,"10":-0.13784632086753845,"11":-0.25913652777671814,"12":-0.5182684063911438,"13":0.2430580109357834,"14":-0.14946921169757843,"15":0.029473410919308662,"16":-0.0567561611533165,"17":0.0692519098520279,"18":0.003757181577384472,"19":-0.24997489154338837,"20":-0.4735918343067169,"21":0.2378605157136917,"22":-0.06156935542821884,"23":-0.009843218140304089,"24":-0.19788429141044617,"25":0.07595975697040558,"26":-0.15200896561145782,"27":-0.01136165764182806,"28":-0.005781734362244606,"29":-0.5212376117706299,"30":0.21542313694953918,"31":-0.26472219824790955}},"20":{"bias":-0.27863138914108276,"weights":{"0":0.21686001121997833,"1":-1.4257971048355103,"2":0.07067412883043289,"3":0.30593350529670715,"4":-0.04644809290766716,"5":0.1186194196343422,"6":2.214655637741089,"7":-0.21073555946350098,"8":-0.3125888407230377,"9":0.7411982417106628,"10":0.43344366550445557,"11":0.3400319516658783,"12":0.26304540038108826,"13":0.16509082913398743,"14":2.239905834197998,"15":0.6338364481925964,"16":0.4031675159931183,"17":0.4055689871311188,"18":-0.1465957909822464,"19":-0.2076573520898819,"20":0.26359447836875916,"21":0.1190345510840416,"22":0.5259032845497131,"23":0.5020055770874023,"24":0.014159703627228737,"25":0.34119004011154175,"26":0.1292298138141632,"27":0.3180975615978241,"28":0.22742679715156555,"29":-0.19454434514045715,"30":0.2639133632183075,"31":-0.2515104413032532}},"21":{"bias":-0.742480993270874,"weights":{"0":-0.7605012059211731,"1":-0.6411616206169128,"2":-0.9978758096694946,"3":-0.5180315375328064,"4":0.38431283831596375,"5":0.04885842278599739,"6":-0.008472049608826637,"7":-0.9290732741355896,"8":-0.16361606121063232,"9":0.4374494254589081,"10":-0.14290110766887665,"11":-0.20922374725341797,"12":-0.7352327108383179,"13":0.38951411843299866,"14":0.25603020191192627,"15":0.5911319851875305,"16":0.6015563011169434,"17":0.5497534871101379,"18":0.1704913228750229,"19":0.03383660688996315,"20":-0.7268670201301575,"21":0.6110040545463562,"22":-0.006806749850511551,"23":0.39835843443870544,"24":-0.2608054578304291,"25":0.5535368919372559,"26":0.3790147602558136,"27":0.11915800720453262,"28":0.24712906777858734,"29":-0.6545625329017639,"30":0.2847500443458557,"31":-0.2761973440647125}},"22":{"bias":-0.7423303127288818,"weights":{"0":-0.5612397193908691,"1":-0.6216179132461548,"2":-0.7798458933830261,"3":-0.5076674222946167,"4":0.061004944145679474,"5":0.3242764472961426,"6":-0.030969182029366493,"7":-0.8799165487289429,"8":-0.016762355342507362,"9":0.39766210317611694,"10":-0.11051760613918304,"11":-0.11727366596460342,"12":-0.4572315216064453,"13":0.43743932247161865,"14":0.21219487488269806,"15":0.2408752143383026,"16":0.2087256759405136,"17":0.6120798587799072,"18":0.16578784584999084,"19":-0.12838679552078247,"20":-0.6351292729377747,"21":0.5946131348609924,"22":0.05258180573582649,"23":0.2378629893064499,"24":-0.2930040657520294,"25":0.3630535900592804,"26":0.2991236746311188,"27":0.23450888693332672,"28":0.12928767502307892,"29":-0.7528490424156189,"30":-0.05421146750450134,"31":-0.3804313540458679}},"23":{"bias":-0.4795474708080292,"weights":{"0":-0.8675723075866699,"1":-0.6395549178123474,"2":-0.8835479617118835,"3":-0.6901445984840393,"4":0.25509536266326904,"5":0.34092751145362854,"6":0.2008504867553711,"7":-0.8476698994636536,"8":-0.2497921884059906,"9":0.2127763330936432,"10":-0.11288907378911972,"11":-0.056714557111263275,"12":-0.7073474526405334,"13":0.4185238480567932,"14":0.1542576253414154,"15":0.4999825358390808,"16":0.39067500829696655,"17":0.4341351091861725,"18":0.09668111801147461,"19":0.16405601799488068,"20":-1.0464692115783691,"21":0.496724009513855,"22":-0.06714750081300735,"23":0.4435759484767914,"24":-0.05672871321439743,"25":0.7196260690689087,"26":0.07396451383829117,"27":0.31874802708625793,"28":0.46917060017585754,"29":-0.8069133162498474,"30":0.0589379221200943,"31":0.0074010672979056835}},"24":{"bias":-0.5634722113609314,"weights":{"0":-0.3652786910533905,"1":-0.06128248572349548,"2":-0.41996440291404724,"3":-0.41636818647384644,"4":0.20938603579998016,"5":0.03842862695455551,"6":-0.2729099988937378,"7":-0.6086195707321167,"8":-0.2017393261194229,"9":-0.17410817742347717,"10":-0.10673791915178299,"11":-0.025776509195566177,"12":-0.3692694902420044,"13":0.16694945096969604,"14":-0.04987373575568199,"15":0.04369865730404854,"16":0.00796084851026535,"17":0.11882878094911575,"18":-0.11669687926769257,"19":-0.12471884489059448,"20":-0.4137970209121704,"21":-0.034609101712703705,"22":-0.07127499580383301,"23":0.029484916478395462,"24":-0.010057399980723858,"25":0.06684652715921402,"26":0.13096588850021362,"27":0.1364814192056656,"28":0.26258227229118347,"29":-0.4453549087047577,"30":0.14804771542549133,"31":-0.0677785724401474}},"25":{"bias":-0.5065723657608032,"weights":{"0":-0.6820807456970215,"1":-0.36629852652549744,"2":-0.9664954543113708,"3":-0.3666594922542572,"4":-0.004927055910229683,"5":0.32750654220581055,"6":0.205169215798378,"7":-1.0218769311904907,"8":-0.12353923916816711,"9":0.21766141057014465,"10":-0.08250557631254196,"11":0.07371855527162552,"12":-0.5736895799636841,"13":0.24184457957744598,"14":0.010818799957633018,"15":0.1740724891424179,"16":0.2505526542663574,"17":0.4480523467063904,"18":0.1820371001958847,"19":0.10891523212194443,"20":-0.6120150685310364,"21":0.4868612587451935,"22":-0.10525011271238327,"23":0.2158476561307907,"24":-0.22490271925926208,"25":0.3223814368247986,"26":0.23987510800361633,"27":0.3234027326107025,"28":0.2612961232662201,"29":-0.8087158203125,"30":0.24286974966526031,"31":-0.03220745176076889}},"26":{"bias":-0.4655511677265167,"weights":{"0":-0.7520567178726196,"1":-0.31328582763671875,"2":-0.761120080947876,"3":-0.5991435050964355,"4":0.3662012815475464,"5":0.0646638423204422,"6":0.23082774877548218,"7":-1.1857008934020996,"8":-0.1800186187028885,"9":0.20300397276878357,"10":0.011817509308457375,"11":0.04734481871128082,"12":-0.6724905967712402,"13":0.12861570715904236,"14":0.25379112362861633,"15":0.5501651763916016,"16":0.5186685919761658,"17":0.5322601795196533,"18":-0.0394611619412899,"19":0.04823307320475578,"20":-0.9392059445381165,"21":0.3169681131839752,"22":-0.266424298286438,"23":0.4719018042087555,"24":0.06750722229480743,"25":0.7002776861190796,"26":-0.03428204357624054,"27":0.11150043457746506,"28":0.4548969566822052,"29":-0.8939290642738342,"30":0.3596116900444031,"31":-0.06842818111181259}},"27":{"bias":-0.49030575156211853,"weights":{"0":-0.46658673882484436,"1":-0.3966480493545532,"2":-0.7823198437690735,"3":-0.5188750624656677,"4":0.24391353130340576,"5":0.14613333344459534,"6":0.17311382293701172,"7":-0.8508968949317932,"8":-0.19236144423484802,"9":0.25395023822784424,"10":-0.07247339934110641,"11":-0.14980874955654144,"12":-0.5037868618965149,"13":0.20194271206855774,"14":-0.0335577018558979,"15":0.30027320981025696,"16":0.49775344133377075,"17":0.5836046934127808,"18":-0.044581834226846695,"19":0.040356170386075974,"20":-0.8765001893043518,"21":0.5576112270355225,"22":-0.2667149007320404,"23":0.12309244275093079,"24":-0.20104727149009705,"25":0.2846299409866333,"26":-0.00011045500286854804,"27":0.36604708433151245,"28":0.2633148729801178,"29":-0.7499422430992126,"30":0.03735501319169998,"31":-0.01197430957108736}},"28":{"bias":-0.2724985182285309,"weights":{"0":0.2262364625930786,"1":-1.4637985229492188,"2":-0.02523346245288849,"3":0.3909323513507843,"4":0.017884939908981323,"5":-0.01111928652971983,"6":2.2513387203216553,"7":-0.233962282538414,"8":-0.37808915972709656,"9":0.7928543090820312,"10":0.34447699785232544,"11":0.07476580142974854,"12":0.3050564229488373,"13":0.2080439031124115,"14":2.2667198181152344,"15":0.5663256645202637,"16":0.3882216811180115,"17":0.398953378200531,"18":0.003810557536780834,"19":-0.13180051743984222,"20":0.08896313607692719,"21":0.1633152961730957,"22":0.6695398688316345,"23":0.5467569231987,"24":0.15199866890907288,"25":0.37138962745666504,"26":0.30898261070251465,"27":0.22443808615207672,"28":0.21067942678928375,"29":-0.08187776058912277,"30":0.34726017713546753,"31":-0.337795227766037}},"29":{"bias":-0.44622471928596497,"weights":{"0":-0.9204035401344299,"1":-0.5844501852989197,"2":-0.8825488686561584,"3":-0.7939720153808594,"4":0.20447318255901337,"5":0.16949644684791565,"6":0.20255301892757416,"7":-1.1580129861831665,"8":-0.27262651920318604,"9":0.5058016180992126,"10":0.007899748161435127,"11":0.12241402268409729,"12":-0.5321138501167297,"13":0.33850014209747314,"14":0.07393115758895874,"15":0.3904474079608917,"16":0.5415776968002319,"17":0.6696054935455322,"18":0.0024752698373049498,"19":0.07525942474603653,"20":-0.75853431224823,"21":0.6102287173271179,"22":0.0566415935754776,"23":0.1934489905834198,"24":0.039548300206661224,"25":0.60210782289505,"26":0.04806087166070938,"27":0.30103522539138794,"28":0.34727203845977783,"29":-0.7098588347434998,"30":0.08674601465463638,"31":-0.3818371891975403}},"30":{"bias":-0.3242362439632416,"weights":{"0":-0.2609023153781891,"1":-0.07485835999250412,"2":-0.4590790569782257,"3":-0.27967697381973267,"4":0.11653142422437668,"5":0.07656436413526535,"6":-0.42084750533103943,"7":-0.13332684338092804,"8":0.10370165854692459,"9":-0.3109709322452545,"10":-0.19653895497322083,"11":-0.10310642421245575,"12":-0.17760871350765228,"13":-0.2830338776111603,"14":-0.4891156256198883,"15":-0.07005403935909271,"16":0.0262655857950449,"17":-0.014118021354079247,"18":0.0013240872649475932,"19":-0.27846893668174744,"20":-0.4851131737232208,"21":-0.04213091731071472,"22":-0.32364872097969055,"23":-0.10663256049156189,"24":-0.2290666699409485,"25":-0.058279432356357574,"26":0.01949264481663704,"27":-0.21919666230678558,"28":-0.1419670432806015,"29":-0.2603323757648468,"30":-0.2377660572528839,"31":-0.026752522215247154}},"31":{"bias":-0.5135765671730042,"weights":{"0":-0.3551402688026428,"1":-0.20850513875484467,"2":-0.6844452619552612,"3":-0.42129650712013245,"4":0.21879830956459045,"5":0.2961289584636688,"6":0.002572998870164156,"7":-0.8260945081710815,"8":-0.06850962340831757,"9":0.08226234465837479,"10":-0.07658195495605469,"11":0.13610655069351196,"12":-0.3116109073162079,"13":0.3466963768005371,"14":-0.11554042994976044,"15":0.1546870917081833,"16":0.08555938303470612,"17":0.26660099625587463,"18":0.12021917849779129,"19":0.07785813510417938,"20":-0.42805203795433044,"21":0.11468584835529327,"22":-0.2894698679447174,"23":0.16117936372756958,"24":-0.27087828516960144,"25":0.3127831816673279,"26":-0.10326210409402847,"27":0.1498582810163498,"28":0.3480616509914398,"29":-0.8232113122940063,"30":0.17458368837833405,"31":-0.13155843317508698}}},{"0":{"bias":-0.4388338327407837,"weights":{"0":-0.3816702961921692,"1":-0.08191955089569092,"2":-0.14888493716716766,"3":-0.263638973236084,"4":-0.24002790451049805,"5":-0.3242674469947815,"6":0.021768849343061447,"7":-0.28280624747276306,"8":-0.2625918388366699,"9":-0.1891583502292633,"10":-0.2611205279827118,"11":-0.31976306438446045,"12":-0.23655523359775543,"13":-0.22144366800785065,"14":0.024535035714507103,"15":-0.4419413208961487,"16":-0.2615121304988861,"17":-0.07943613827228546,"18":-0.21910037100315094,"19":-0.20607952773571014,"20":-0.6379820108413696,"21":-0.18198172748088837,"22":-0.32080644369125366,"23":-0.3538956046104431,"24":0.04984954744577408,"25":-0.1287953406572342,"26":-0.29762113094329834,"27":-0.3230941593647003,"28":-0.6912643313407898,"29":-0.4750974476337433,"30":0.025557056069374084,"31":-0.24319840967655182}},"1":{"bias":-0.1897805780172348,"weights":{"0":-0.5818290114402771,"1":-0.007160831708461046,"2":-0.27048179507255554,"3":-0.2529112696647644,"4":-0.3706529438495636,"5":-0.2553916275501251,"6":0.028906086459755898,"7":-0.13441601395606995,"8":-0.12281712144613266,"9":-0.1287887543439865,"10":-0.25346434116363525,"11":-0.2641507089138031,"12":-0.26188722252845764,"13":-0.29969096183776855,"14":-0.10771094262599945,"15":-0.2992275357246399,"16":-0.25587162375450134,"17":-0.23760896921157837,"18":-0.3389185070991516,"19":-0.21563850343227386,"20":-0.6718433499336243,"21":-0.30556610226631165,"22":-0.34264716506004333,"23":-0.4567963182926178,"24":-0.05576905980706215,"25":-0.11588790267705917,"26":-0.4013311564922333,"27":-0.27620676159858704,"28":-0.732225239276886,"29":-0.2496017962694168,"30":0.04284336790442467,"31":0.016264189034700394}},"2":{"bias":-0.24926957488059998,"weights":{"0":-0.6570651531219482,"1":-0.27106621861457825,"2":0.011567363515496254,"3":-0.32745182514190674,"4":-0.11959118396043777,"5":-0.047569673508405685,"6":0.02802656963467598,"7":-0.12534694373607635,"8":0.005755390506237745,"9":-0.22840110957622528,"10":-0.3381367623806,"11":-0.3329154849052429,"12":-0.19454914331436157,"13":-0.4786544144153595,"14":-0.2802433669567108,"15":-0.25330644845962524,"16":-0.38326674699783325,"17":-0.0033982889726758003,"18":-0.40548446774482727,"19":0.11253471672534943,"20":-0.5879712700843811,"21":-0.46466177701950073,"22":-0.2621603310108185,"23":-0.31035691499710083,"24":0.041032083332538605,"25":-0.13284295797348022,"26":-0.24533016979694366,"27":-0.15023604035377502,"28":-0.7306671142578125,"29":-0.496252179145813,"30":0.06060093268752098,"31":-0.15677328407764435}},"3":{"bias":-0.16733790934085846,"weights":{"0":-0.6986598372459412,"1":-0.0872267484664917,"2":-0.0339137427508831,"3":-0.37150439620018005,"4":-0.41285255551338196,"5":-0.09045366942882538,"6":-0.05624137073755264,"7":-0.3957541286945343,"8":-0.12957113981246948,"9":-0.2680625319480896,"10":-0.18806201219558716,"11":-0.4468232989311218,"12":-0.4354083240032196,"13":-0.5431156158447266,"14":-0.008084033615887165,"15":-0.21834509074687958,"16":-0.06950802356004715,"17":-0.06736742705106735,"18":-0.3938473165035248,"19":-0.2717835605144501,"20":-0.7220742106437683,"21":-0.38462570309638977,"22":-0.08345580846071243,"23":-0.25481826066970825,"24":-0.037703339010477066,"25":-0.19330188632011414,"26":-0.13947919011116028,"27":-0.32363852858543396,"28":-0.5736855268478394,"29":-0.14307329058647156,"30":-0.22625361382961273,"31":-0.103550486266613}},"4":{"bias":-0.23268547654151917,"weights":{"0":-0.654373288154602,"1":-0.39268872141838074,"2":-0.04722721502184868,"3":-0.49995434284210205,"4":-0.3248128592967987,"5":-0.0634477436542511,"6":-0.22161097824573517,"7":-0.29320240020751953,"8":-0.2389475703239441,"9":-0.27508291602134705,"10":-0.06825798004865646,"11":-0.40475133061408997,"12":-0.17208629846572876,"13":-0.43094316124916077,"14":-0.055944185703992844,"15":-0.09558030962944031,"16":-0.03652394935488701,"17":-0.08337040990591049,"18":-0.3508548140525818,"19":-0.11294227838516235,"20":-0.6429750919342041,"21":-0.4438427984714508,"22":0.004977180156856775,"23":-0.28674715757369995,"24":-0.07706329971551895,"25":-0.10195331275463104,"26":-0.480220228433609,"27":-0.39328503608703613,"28":-0.6477466225624084,"29":-0.1687888652086258,"30":-0.028966227546334267,"31":0.032762300223112106}},"5":{"bias":-0.44128480553627014,"weights":{"0":-0.6521534323692322,"1":-0.05175960436463356,"2":-0.24794675409793854,"3":-0.15860344469547272,"4":-0.38712871074676514,"5":-0.18979322910308838,"6":-0.1461319774389267,"7":-0.2835964858531952,"8":-0.21817132830619812,"9":-0.3867229223251343,"10":-0.2752769887447357,"11":-0.4915829002857208,"12":-0.11177636682987213,"13":-0.39597073197364807,"14":-0.2445240169763565,"15":-0.017467770725488663,"16":-0.40145665407180786,"17":-0.313298761844635,"18":-0.4240942597389221,"19":0.1335989534854889,"20":-0.43510711193084717,"21":-0.23183870315551758,"22":-0.19517816603183746,"23":-0.3272347152233124,"24":-0.11938970535993576,"25":-0.0666753426194191,"26":-0.2489178329706192,"27":-0.07597215473651886,"28":-0.6298552751541138,"29":-0.27541306614875793,"30":0.1366180032491684,"31":-0.048705507069826126}},"6":{"bias":-0.3328936696052551,"weights":{"0":-0.5594518184661865,"1":-0.04985837638378143,"2":-0.2023613154888153,"3":-0.19289998710155487,"4":-0.2978638708591461,"5":-0.23374496400356293,"6":-0.0553106889128685,"7":-0.19918465614318848,"8":-0.30863818526268005,"9":-0.250972718000412,"10":-0.16992300748825073,"11":-0.31416454911231995,"12":-0.17434976994991302,"13":-0.23238380253314972,"14":-0.06933067739009857,"15":-0.16601020097732544,"16":-0.3054892122745514,"17":-0.10384465008974075,"18":-0.4618319571018219,"19":-0.10292776674032211,"20":-0.5880750417709351,"21":-0.3095444142818451,"22":-0.4003930985927582,"23":-0.25671815872192383,"24":-0.10673578828573227,"25":-0.33260926604270935,"26":-0.21784821152687073,"27":-0.21422387659549713,"28":-0.6745697855949402,"29":-0.31615346670150757,"30":-0.10767035186290741,"31":-0.18363989889621735}},"7":{"bias":-0.009737716987729073,"weights":{"0":-0.4470909833908081,"1":-0.3367181122303009,"2":-0.023423360660672188,"3":-0.3196463882923126,"4":-0.18976318836212158,"5":-0.2316046804189682,"6":0.05542345717549324,"7":-0.005903150886297226,"8":-0.07168310135602951,"9":-0.32675251364707947,"10":-0.3213423490524292,"11":-0.5590752363204956,"12":-0.3993516266345978,"13":-0.20020060241222382,"14":-0.34860220551490784,"15":-0.08795196563005447,"16":-0.1861041784286499,"17":-0.2541148066520691,"18":-0.32129597663879395,"19":-0.006222202908247709,"20":-0.8873618245124817,"21":-0.38704001903533936,"22":-0.28425920009613037,"23":-0.31900089979171753,"24":0.03126240149140358,"25":-0.0482872799038887,"26":-0.38683581352233887,"27":-0.02249765209853649,"28":-0.8736605048179626,"29":-0.34206756949424744,"30":0.14107607305049896,"31":-0.15549111366271973}},"8":{"bias":-0.40751343965530396,"weights":{"0":-0.6196424961090088,"1":-0.11574126780033112,"2":-0.2867128252983093,"3":-0.4780428111553192,"4":-0.4391639828681946,"5":-0.1406906098127365,"6":0.057442765682935715,"7":-0.2222956120967865,"8":-0.2009752243757248,"9":-0.011893011629581451,"10":-0.11987040191888809,"11":-0.5813233256340027,"12":-0.21708944439888,"13":-0.45057737827301025,"14":-0.017872901633381844,"15":-0.3248797655105591,"16":-0.4400295615196228,"17":-0.06976562738418579,"18":-0.4731224477291107,"19":-0.06515853106975555,"20":-0.5406548976898193,"21":-0.28345149755477905,"22":-0.18375690281391144,"23":-0.3395427465438843,"24":0.027985235676169395,"25":-0.11204827576875687,"26":-0.1639377921819687,"27":-0.28682780265808105,"28":-0.6035031676292419,"29":-0.14248701930046082,"30":0.1164829432964325,"31":-0.05668716877698898}},"9":{"bias":-0.24820548295974731,"weights":{"0":-0.7741404175758362,"1":-0.401907742023468,"2":-0.24228370189666748,"3":-0.2947056293487549,"4":-0.15577954053878784,"5":-0.021099569275975227,"6":-0.05635705962777138,"7":-0.260502427816391,"8":-0.16035734117031097,"9":-0.2907220721244812,"10":-0.43241071701049805,"11":-0.4342336356639862,"12":-0.1529017835855484,"13":-0.13648240268230438,"14":-0.2630949914455414,"15":-0.20478405058383942,"16":-0.21528269350528717,"17":-0.1281159520149231,"18":-0.44282087683677673,"19":-0.06124838441610336,"20":-0.5340654850006104,"21":-0.20515725016593933,"22":-0.32494935393333435,"23":-0.2530568838119507,"24":-0.020759981125593185,"25":-0.10206442326307297,"26":-0.2729353904724121,"27":-0.2444852739572525,"28":-0.6108272075653076,"29":-0.41535240411758423,"30":-0.016282254830002785,"31":-0.004449671134352684}},"10":{"bias":-0.16161632537841797,"weights":{"0":-0.7354490160942078,"1":-0.18013134598731995,"2":-0.11663637310266495,"3":-0.43587636947631836,"4":-0.048615265637636185,"5":-0.18152613937854767,"6":-0.12548494338989258,"7":-0.12348248064517975,"8":-0.1717318296432495,"9":-0.40468668937683105,"10":-0.3650291860103607,"11":-0.37387824058532715,"12":-0.20955485105514526,"13":-0.371805340051651,"14":-0.2696073353290558,"15":-0.05089525878429413,"16":-0.1655074954032898,"17":-0.02563493140041828,"18":-0.22952905297279358,"19":-0.23841920495033264,"20":-0.5938980579376221,"21":-0.10330309718847275,"22":-0.10214090347290039,"23":-0.3712749481201172,"24":0.06214859336614609,"25":-0.3302963972091675,"26":-0.4696398675441742,"27":-0.36347973346710205,"28":-0.6868955492973328,"29":-0.300896555185318,"30":0.15911556780338287,"31":-0.17220400273799896}},"11":{"bias":-0.14222723245620728,"weights":{"0":-0.5917305946350098,"1":-0.36015892028808594,"2":0.008114615455269814,"3":-0.16278177499771118,"4":-0.39811065793037415,"5":-0.2636761963367462,"6":-0.21747015416622162,"7":-0.3730314075946808,"8":-0.2218155562877655,"9":-0.3647259473800659,"10":-0.2314118891954422,"11":-0.2444533407688141,"12":-0.23837564885616302,"13":-0.4413991868495941,"14":0.046099450439214706,"15":-0.23828129470348358,"16":-0.14347094297409058,"17":0.04851614311337471,"18":-0.3841606080532074,"19":-0.020205171778798103,"20":-0.7183966040611267,"21":-0.2519599497318268,"22":-0.1374267190694809,"23":-0.4266023635864258,"24":0.1249425858259201,"25":-0.3131810426712036,"26":-0.3280300498008728,"27":-0.3401370048522949,"28":-0.7273990511894226,"29":-0.06423667818307877,"30":0.10755891352891922,"31":-0.14403992891311646}},"12":{"bias":0.08947594463825226,"weights":{"0":-0.7384244203567505,"1":-0.11140532046556473,"2":-0.07379703968763351,"3":-0.23594127595424652,"4":-0.20381782948970795,"5":-0.3171987533569336,"6":0.06259605288505554,"7":-0.22274626791477203,"8":0.02380511909723282,"9":-0.13254982233047485,"10":-0.18328776955604553,"11":-0.38972678780555725,"12":-0.13242749869823456,"13":-0.48300617933273315,"14":-0.34750548005104065,"15":-0.26431554555892944,"16":-0.3807772696018219,"17":-0.2531059682369232,"18":-0.27178844809532166,"19":-0.16824263334274292,"20":-0.7334027886390686,"21":-0.4793890416622162,"22":-0.21423012018203735,"23":-0.18880270421504974,"24":-0.019343946129083633,"25":-0.33614930510520935,"26":-0.19757328927516937,"27":-0.3031870424747467,"28":-0.8259338140487671,"29":-0.2069210708141327,"30":0.006224436219781637,"31":-0.15340064465999603}},"13":{"bias":-0.29139986634254456,"weights":{"0":-0.5975483059883118,"1":-0.2388588786125183,"2":-0.04452484846115112,"3":-0.4017980694770813,"4":-0.05630677938461304,"5":-0.26386648416519165,"6":-0.007691249251365662,"7":-0.3507186770439148,"8":-0.3095467984676361,"9":-0.02754662185907364,"10":-0.17320825159549713,"11":-0.2512044310569763,"12":-0.2349379062652588,"13":-0.4063504934310913,"14":-0.3467080295085907,"15":-0.3693011701107025,"16":-0.043565038591623306,"17":-0.23355309665203094,"18":-0.1366838663816452,"19":0.11338283866643906,"20":-0.7604292035102844,"21":-0.4631597697734833,"22":-0.21664200723171234,"23":-0.12422804534435272,"24":0.05007226765155792,"25":-0.35299819707870483,"26":-0.5071517825126648,"27":-0.04146041348576546,"28":-0.527971625328064,"29":-0.37252044677734375,"30":0.13086959719657898,"31":-0.27954337000846863}},"14":{"bias":-0.23469676077365875,"weights":{"0":-0.37780413031578064,"1":-0.18863621354103088,"2":-0.3347792327404022,"3":-0.4742414355278015,"4":-0.3369905948638916,"5":-0.3662574589252472,"6":0.005141228903084993,"7":-0.0999191477894783,"8":0.019403288140892982,"9":-0.021263625472784042,"10":-0.15711869299411774,"11":-0.5357334613800049,"12":-0.14705215394496918,"13":-0.2744227647781372,"14":0.03179260715842247,"15":-0.05222688242793083,"16":-0.2008064091205597,"17":-0.32241231203079224,"18":-0.4484555721282959,"19":0.05971306189894676,"20":-0.7531333565711975,"21":-0.2922287881374359,"22":-0.08640860766172409,"23":-0.3453238308429718,"24":-0.14275044202804565,"25":-0.32935237884521484,"26":-0.3047832250595093,"27":-0.15799970924854279,"28":-0.7922455072402954,"29":-0.39880454540252686,"30":-0.1408362090587616,"31":-0.2493095099925995}},"15":{"bias":-0.18066348135471344,"weights":{"0":-0.655468225479126,"1":-0.1633337140083313,"2":-0.22459007799625397,"3":-0.28395116329193115,"4":-0.24380408227443695,"5":-0.3575103282928467,"6":-0.025144778192043304,"7":-0.2823030948638916,"8":-0.1266518086194992,"9":-0.11234137415885925,"10":-0.18433943390846252,"11":-0.36300697922706604,"12":-0.3448536694049835,"13":-0.2692162096500397,"14":-0.2326650768518448,"15":-0.28145545721054077,"16":-0.135128915309906,"17":-0.14619317650794983,"18":-0.3265627324581146,"19":0.10897894203662872,"20":-0.5439597964286804,"21":-0.387268602848053,"22":-0.07734978944063187,"23":-0.18788805603981018,"24":0.10731548070907593,"25":-0.3002304434776306,"26":-0.5282773971557617,"27":-0.04469582065939903,"28":-0.821420431137085,"29":-0.39550235867500305,"30":0.08008299767971039,"31":-0.13229694962501526}},"16":{"bias":-0.25135740637779236,"weights":{"0":-0.6385180950164795,"1":-0.12319823354482651,"2":-0.30277711153030396,"3":-0.23620153963565826,"4":-0.39010995626449585,"5":-0.23392489552497864,"6":-0.2939925491809845,"7":-0.19308048486709595,"8":0.04003707692027092,"9":-0.3209719657897949,"10":-0.1217983067035675,"11":-0.37542909383773804,"12":-0.3192196786403656,"13":-0.17041678726673126,"14":-0.2090924233198166,"15":-0.4211309552192688,"16":-0.2890630066394806,"17":-0.032245390117168427,"18":-0.4415915906429291,"19":0.04744157940149307,"20":-0.7391843199729919,"21":-0.30799397826194763,"22":-0.04020319879055023,"23":-0.1284618079662323,"24":0.011990390717983246,"25":-0.33267223834991455,"26":-0.3320085406303406,"27":-0.18195000290870667,"28":-0.5619583129882812,"29":-0.3947271406650543,"30":0.0811740905046463,"31":0.06436233222484589}},"17":{"bias":-0.09040533751249313,"weights":{"0":-0.6819052696228027,"1":-0.2802909016609192,"2":-0.1638122946023941,"3":-0.24105237424373627,"4":-0.2553185224533081,"5":-0.3465181589126587,"6":-0.28246572613716125,"7":-0.06515291333198547,"8":0.07854307442903519,"9":-0.20520271360874176,"10":-0.3842216730117798,"11":-0.5408617258071899,"12":-0.10385555773973465,"13":-0.4900258481502533,"14":-0.3199073076248169,"15":-0.1358046978712082,"16":-0.06142166256904602,"17":-0.261615127325058,"18":-0.34665173292160034,"19":-0.01910516247153282,"20":-0.6614995002746582,"21":-0.4529390037059784,"22":-0.31414106488227844,"23":-0.2792000472545624,"24":0.12923459708690643,"25":-0.17552009224891663,"26":-0.2558088004589081,"27":-0.1342276781797409,"28":-0.7814642786979675,"29":-0.11663655936717987,"30":0.1088993102312088,"31":0.017798475921154022}},"18":{"bias":-0.46446043252944946,"weights":{"0":-0.42307332158088684,"1":-0.24316950142383575,"2":-0.11188808083534241,"3":-0.4711117446422577,"4":-0.24808834493160248,"5":-0.24469739198684692,"6":-0.29987114667892456,"7":-0.06922843307256699,"8":-0.06421273201704025,"9":-0.08766701072454453,"10":-0.10561228543519974,"11":-0.2009391188621521,"12":-0.43848997354507446,"13":-0.36588287353515625,"14":-0.2465488463640213,"15":-0.16298504173755646,"16":-0.1502973884344101,"17":-0.3135547935962677,"18":-0.18381573259830475,"19":0.07529344409704208,"20":-0.5782758593559265,"21":-0.3234195113182068,"22":-0.36850860714912415,"23":-0.4459855258464813,"24":0.006278713699430227,"25":-0.10176683962345123,"26":-0.2666749954223633,"27":-0.0722641721367836,"28":-0.6788523197174072,"29":-0.44723254442214966,"30":-0.13390642404556274,"31":-0.2244887799024582}},"19":{"bias":-0.3452778458595276,"weights":{"0":-0.48987412452697754,"1":-0.35412704944610596,"2":-0.24108034372329712,"3":-0.32989469170570374,"4":-0.28840628266334534,"5":-0.027023760601878166,"6":-0.23212550580501556,"7":-0.0931648313999176,"8":-0.3079656958580017,"9":-0.31706809997558594,"10":-0.3421561121940613,"11":-0.4057447016239166,"12":-0.2476402372121811,"13":-0.11845151335000992,"14":-0.1623273342847824,"15":-0.4178920090198517,"16":-0.21780869364738464,"17":-0.19963647425174713,"18":-0.387126624584198,"19":0.0793619230389595,"20":-0.6584639549255371,"21":-0.310407429933548,"22":-0.019296670332551003,"23":-0.15904968976974487,"24":-0.2009653002023697,"25":-0.3601640462875366,"26":-0.2026997059583664,"27":-0.23695170879364014,"28":-0.6336703896522522,"29":-0.3107087016105652,"30":-0.28352558612823486,"31":0.06827456504106522}},"20":{"bias":-0.16380244493484497,"weights":{"0":-0.47552579641342163,"1":-0.40893808007240295,"2":-0.09626322239637375,"3":-0.3122020661830902,"4":-0.09899148344993591,"5":-0.0808054581284523,"6":0.03407837077975273,"7":-0.1403949111700058,"8":-0.25233539938926697,"9":-0.3453112542629242,"10":-0.23185206949710846,"11":-0.5085943341255188,"12":-0.3511607050895691,"13":-0.42172154784202576,"14":0.01354016549885273,"15":-0.0868867039680481,"16":-0.0414089560508728,"17":-0.1671881377696991,"18":-0.26566627621650696,"19":-0.2304442822933197,"20":-0.868220329284668,"21":-0.32666173577308655,"22":-0.15056699514389038,"23":-0.43874529004096985,"24":0.14728429913520813,"25":-0.0975029319524765,"26":-0.41025736927986145,"27":-0.22693529725074768,"28":-0.6758661866188049,"29":-0.47537723183631897,"30":0.08847587555646896,"31":-0.14108386635780334}},"21":{"bias":-0.3323037028312683,"weights":{"0":-0.327996164560318,"1":-0.056805357336997986,"2":0.06071976199746132,"3":-0.21800324320793152,"4":-0.12810084223747253,"5":-0.2529705762863159,"6":-0.304766982793808,"7":-0.041180189698934555,"8":-0.24712549149990082,"9":-0.20651182532310486,"10":-0.34650593996047974,"11":-0.26855263113975525,"12":-0.15294139087200165,"13":-0.45398685336112976,"14":0.029051918536424637,"15":-0.36551573872566223,"16":-0.024802125990390778,"17":-0.3155955374240875,"18":-0.4938267171382904,"19":-0.17482014000415802,"20":-0.7516622543334961,"21":-0.37476980686187744,"22":-0.37021809816360474,"23":-0.46509960293769836,"24":-0.1795896738767624,"25":-0.30329427123069763,"26":-0.2655446529388428,"27":-0.24158918857574463,"28":-0.7438072562217712,"29":-0.14718538522720337,"30":0.11458522081375122,"31":-0.017926901578903198}},"22":{"bias":-0.3560456335544586,"weights":{"0":-0.44523105025291443,"1":-0.0848916545510292,"2":-0.1978926807641983,"3":-0.26130014657974243,"4":-0.3114311099052429,"5":-0.3137381076812744,"6":-0.19362251460552216,"7":-0.19413936138153076,"8":-0.23225530982017517,"9":-0.26746827363967896,"10":-0.19211530685424805,"11":-0.28239402174949646,"12":-0.43966174125671387,"13":-0.21602988243103027,"14":-0.015429957769811153,"15":-0.28077399730682373,"16":-0.19741888344287872,"17":0.01240913663059473,"18":-0.4026504456996918,"19":0.09859636425971985,"20":-0.7033101916313171,"21":-0.3929397761821747,"22":-0.33916381001472473,"23":-0.28997865319252014,"24":-0.06215374171733856,"25":-0.22501763701438904,"26":-0.21577294170856476,"27":-0.3606674075126648,"28":-0.6457175016403198,"29":-0.30080345273017883,"30":0.0706927478313446,"31":-0.08717183768749237}},"23":{"bias":-0.4487667679786682,"weights":{"0":-0.5396014451980591,"1":-0.27833977341651917,"2":0.014229819178581238,"3":-0.4487132430076599,"4":-0.2976699471473694,"5":-0.27563297748565674,"6":-0.32530540227890015,"7":-0.3546994626522064,"8":-0.31455621123313904,"9":-0.4270261824131012,"10":-0.20134998857975006,"11":-0.2896527349948883,"12":-0.3033643662929535,"13":-0.3091277480125427,"14":-0.15039238333702087,"15":-0.20306077599525452,"16":-0.17348749935626984,"17":-0.2165885865688324,"18":-0.3442998230457306,"19":0.05776078626513481,"20":-0.525526762008667,"21":-0.14497365057468414,"22":-0.08793389052152634,"23":-0.2076590210199356,"24":0.008455954492092133,"25":-0.33242371678352356,"26":-0.19409669935703278,"27":-0.038597751408815384,"28":-0.6249295473098755,"29":-0.184464693069458,"30":-0.056660331785678864,"31":-0.22584916651248932}},"24":{"bias":-0.3388817608356476,"weights":{"0":-0.44090116024017334,"1":-0.31376469135284424,"2":0.008454620838165283,"3":-0.4999725818634033,"4":-0.18788504600524902,"5":-0.09788669645786285,"6":-0.18097727000713348,"7":-0.3767608404159546,"8":-0.023212429136037827,"9":-0.3648117184638977,"10":-0.12297006696462631,"11":-0.3700092136859894,"12":-0.2607179284095764,"13":-0.4581965506076813,"14":-0.2793494760990143,"15":-0.20187844336032867,"16":-0.27105477452278137,"17":-0.012984706088900566,"18":-0.1746196448802948,"19":-0.015061628073453903,"20":-0.8221052289009094,"21":-0.38615426421165466,"22":-0.09010063856840134,"23":-0.4167875051498413,"24":-0.2037907987833023,"25":-0.2546205222606659,"26":-0.12461113184690475,"27":-0.08023210614919662,"28":-0.5449545979499817,"29":-0.25487300753593445,"30":-0.03836389258503914,"31":-0.2782604694366455}},"25":{"bias":-0.130473330616951,"weights":{"0":-0.5971298217773438,"1":-0.15651991963386536,"2":-0.07203827053308487,"3":-0.4333554208278656,"4":-0.2176997810602188,"5":-0.05307959392666817,"6":-0.23648756742477417,"7":-0.3873155415058136,"8":0.034504484385252,"9":-0.32129421830177307,"10":-0.0914524644613266,"11":-0.19860754907131195,"12":-0.3469959795475006,"13":-0.24622316658496857,"14":-0.3517969250679016,"15":-0.24594421684741974,"16":-0.16677513718605042,"17":-0.3434275984764099,"18":-0.2204369604587555,"19":-0.0826462060213089,"20":-0.6715032458305359,"21":-0.35672682523727417,"22":-0.29511019587516785,"23":-0.4441536068916321,"24":0.14077197015285492,"25":-0.15130215883255005,"26":-0.2501535713672638,"27":-0.12750284373760223,"28":-0.7803341746330261,"29":-0.3278767168521881,"30":0.11074085533618927,"31":-0.23943252861499786}},"26":{"bias":-0.15946723520755768,"weights":{"0":-0.5610619187355042,"1":-0.3487522602081299,"2":-0.21984857320785522,"3":-0.4411933124065399,"4":-0.27103129029273987,"5":-0.15439845621585846,"6":-0.03813705965876579,"7":-0.3431398868560791,"8":-0.027383625507354736,"9":0.0002475602086633444,"10":-0.29170820116996765,"11":-0.36889928579330444,"12":-0.4489489793777466,"13":-0.4404812455177307,"14":-0.017082270234823227,"15":-0.12394442409276962,"16":-0.17233438789844513,"17":-0.2752193510532379,"18":-0.2980821430683136,"19":0.09793608635663986,"20":-0.6628995537757874,"21":-0.21798624098300934,"22":-0.1961713433265686,"23":-0.4568624198436737,"24":0.014673336409032345,"25":-0.07982827723026276,"26":-0.376191109418869,"27":-0.009016303345561028,"28":-0.8019366264343262,"29":-0.357785165309906,"30":-0.17543336749076843,"31":-0.07206034660339355}},"27":{"bias":-0.1988627016544342,"weights":{"0":-0.604972243309021,"1":-0.326816201210022,"2":-0.2959403097629547,"3":-0.2449844479560852,"4":-0.17851734161376953,"5":-0.24772118031978607,"6":-0.13683968782424927,"7":-0.025407150387763977,"8":-0.09807192534208298,"9":-0.20311371982097626,"10":-0.3709109425544739,"11":-0.43035855889320374,"12":-0.05575685203075409,"13":-0.21299448609352112,"14":-0.20001547038555145,"15":-0.39216065406799316,"16":-0.37609174847602844,"17":-0.2616397440433502,"18":-0.2751532793045044,"19":-0.1683996319770813,"20":-0.6641069650650024,"21":-0.05251612141728401,"22":-0.3071117699146271,"23":-0.35172149538993835,"24":-0.2222067415714264,"25":-0.12135293334722519,"26":-0.3193022608757019,"27":-0.35094785690307617,"28":-0.6833888292312622,"29":-0.3769789934158325,"30":0.1024765744805336,"31":0.11781736463308334}},"28":{"bias":-0.2281416654586792,"weights":{"0":-0.5972172617912292,"1":-0.3169881999492645,"2":-0.255068302154541,"3":-0.4905222952365875,"4":-0.18253369629383087,"5":-0.3344241678714752,"6":-0.1408453732728958,"7":-0.17308196425437927,"8":-0.22615283727645874,"9":-0.3059456944465637,"10":-0.3856632709503174,"11":-0.2947545349597931,"12":-0.28599584102630615,"13":-0.22944718599319458,"14":-0.1648121476173401,"15":-0.37370815873146057,"16":-0.1295146644115448,"17":-0.25535058975219727,"18":-0.4455525875091553,"19":0.07005707174539566,"20":-0.6846805214881897,"21":-0.14829738438129425,"22":-0.05135660246014595,"23":-0.34863629937171936,"24":-0.07943452149629593,"25":-0.30185335874557495,"26":-0.16764798760414124,"27":-0.05388396605849266,"28":-0.6469433307647705,"29":-0.1448206603527069,"30":-0.09253399819135666,"31":0.022923624143004417}},"29":{"bias":-0.17226485908031464,"weights":{"0":-0.7864329218864441,"1":-0.2846776843070984,"2":-0.14208529889583588,"3":-0.2607262134552002,"4":-0.29613229632377625,"5":-0.07745014131069183,"6":-0.02627943642437458,"7":-0.3534221947193146,"8":-0.29811495542526245,"9":-0.2559612989425659,"10":-0.3688381314277649,"11":-0.388242244720459,"12":-0.14410415291786194,"13":-0.306102454662323,"14":-0.008611813187599182,"15":-0.3859443962574005,"16":-0.3747320771217346,"17":0.04029944911599159,"18":-0.14215967059135437,"19":0.07372185587882996,"20":-0.5224305987358093,"21":-0.11715029180049896,"22":-0.28943997621536255,"23":-0.21168780326843262,"24":-0.07438895851373672,"25":-0.2971968352794647,"26":-0.28451016545295715,"27":-0.3126126825809479,"28":-0.6878052949905396,"29":-0.41290462017059326,"30":0.15864993631839752,"31":-0.2680538594722748}},"30":{"bias":-0.44442230463027954,"weights":{"0":-0.3917126953601837,"1":-0.08258746564388275,"2":-0.026640718802809715,"3":-0.3605741262435913,"4":-0.09939233213663101,"5":-0.3034393787384033,"6":-0.3467176556587219,"7":-0.21009604632854462,"8":-0.030509885400533676,"9":-0.37947285175323486,"10":-0.3600844740867615,"11":-0.23710817098617554,"12":-0.36546844244003296,"13":-0.11075460910797119,"14":-0.24547524750232697,"15":-0.2122051864862442,"16":-0.21935826539993286,"17":-0.35016748309135437,"18":-0.45032942295074463,"19":-0.08961185812950134,"20":-0.7530061602592468,"21":-0.17538058757781982,"22":-0.012806577607989311,"23":-0.1768377274274826,"24":-0.20045053958892822,"25":-0.14137497544288635,"26":-0.18903598189353943,"27":-0.2162935584783554,"28":-0.5381127595901489,"29":-0.46698805689811707,"30":-0.22263292968273163,"31":-0.3099053204059601}},"31":{"bias":-0.31065720319747925,"weights":{"0":-0.568376362323761,"1":-0.3063013553619385,"2":-0.14282561838626862,"3":-0.15503057837486267,"4":-0.22096867859363556,"5":-0.2872367799282074,"6":-0.09461949020624161,"7":-0.3524235188961029,"8":-0.2181333750486374,"9":-0.1601499617099762,"10":-0.08816570043563843,"11":-0.3620511591434479,"12":-0.20340120792388916,"13":-0.28356578946113586,"14":-0.3630516827106476,"15":-0.3078734576702118,"16":-0.18306361138820648,"17":-0.11335106939077377,"18":-0.3773191273212433,"19":0.049695082008838654,"20":-0.6136601567268372,"21":-0.37246862053871155,"22":-0.08478519320487976,"23":-0.40112757682800293,"24":-0.22743980586528778,"25":-0.17564743757247925,"26":-0.355122834444046,"27":-0.0846761092543602,"28":-0.6580401062965393,"29":-0.37307009100914,"30":-0.20126961171627045,"31":0.04895133525133133}}},{"result":{"bias":3.6509649753570557,"weights":{"0":-1.395987868309021,"1":-1.4197789430618286,"2":-1.4634212255477905,"3":-1.4102957248687744,"4":-1.4209591150283813,"5":-1.395910382270813,"6":-1.4055806398391724,"7":-1.4579002857208252,"8":-1.4079545736312866,"9":-1.4092496633529663,"10":-1.4178080558776855,"11":-1.415535569190979,"12":-1.4572418928146362,"13":-1.4117964506149292,"14":-1.4036228656768799,"15":-1.43830406665802,"16":-1.4310836791992188,"17":-1.4557690620422363,"18":-1.3910026550292969,"19":-1.381448745727539,"20":-1.4219706058502197,"21":-1.401660442352295,"22":-1.3911045789718628,"23":-1.3853695392608643,"24":-1.393088698387146,"25":-1.4184812307357788,"26":-1.4268532991409302,"27":-1.3983696699142456,"28":-1.4008898735046387,"29":-1.406479835510254,"30":-1.3850096464157104,"31":-1.399983525276184}}}],"outputLookup":true,"inputLookup":true,"activation":"sigmoid","trainOpts":{"iterations":300000,"errorThresh":0.0005,"log":true,"logPeriod":10,"learningRate":0.3,"momentum":0.1,"callbackPeriod":10,"beta1":0.9,"beta2":0.999,"epsilon":1e-8}}